svm_type c_svc
kernel_type rbf
gamma 0.14285714285714285
nr_class 2
total_sv 913
rho 1.3510902134615401
label 0 1
nr_sv 456 457
SV
1.0 1:0.4773631805345289 2:0.06180179378301709 3:0.01553883327090543 4:0.0020364031524388038 5:-4.500952219635647E-6 6:-2.167153546125453E-4 7:-1.0533961575877788E-5 
1.0 1:0.6081362939170314 2:0.1307892883423549 3:0.001702392257813517 4:0.0011288649186214717 5:4.2074002725149863E-7 6:-2.216165108582208E-4 7:1.5073021185687754E-6 
1.0 1:0.6887995334710274 2:0.19616641368119728 3:0.009006609210870646 4:0.0030500874192777297 5:3.5031720648516587E-6 6:2.324098638882147E-4 7:-1.5597785252433847E-5 
1.0 1:0.39746596993963224 2:0.07264523822790042 3:0.0018582698293068854 4:9.299245927074742E-4 5:1.213747586701541E-6 6:2.4884871621214935E-4 7:1.4548395983901416E-7 
1.0 1:0.5770047957693215 2:0.09289070718545189 3:0.0031827108276525572 4:6.99018366992538E-4 5:-5.396687763931079E-7 6:-1.9394998061480622E-4 7:8.920993272652114E-7 
1.0 1:0.6717803919639648 2:0.25228077754556705 3:0.036863174725495954 4:0.01102018118584861 5:2.1028244214938498E-4 6:0.0031180706251711255 7:-7.153130079294934E-5 
1.0 1:0.45779369885161125 2:0.09008633059398533 3:0.00890457813706349 4:0.0015440942087608907 5:5.445372265129377E-6 6:4.5195918013671147E-4 7:-1.769143003507429E-6 
1.0 1:0.48722994911112116 2:0.10660126344793809 3:0.007859065087333696 4:0.0014763277643674347 5:4.251012136220886E-6 6:3.526180428416203E-4 7:2.686479714676129E-6 
1.0 1:0.39013441661785647 2:0.060791916606213074 3:0.003952936607083325 4:0.0014845875286742557 5:3.5438422012796517E-6 6:3.613850976691515E-4 7:-6.12628756550593E-7 
1.0 1:0.6847446989963076 2:0.1770494290458121 3:0.0077571437869158235 4:0.00194763048101139 5:7.471630896511411E-6 6:7.511585403848864E-4 7:-1.2180148349004962E-6 
1.0 1:0.384899241193756 2:0.04218801231790591 3:0.0027919640785889406 4:1.548032706416355E-4 5:-1.016947109876976E-7 6:-2.9074971836749384E-5 7:3.946290240217072E-9 
1.0 1:0.5883305209110368 2:0.1259302349439808 3:0.008896196991845285 4:4.62656519617943E-4 5:6.454730385189494E-7 6:-5.34810203661385E-5 7:6.814497565672872E-7 
1.0 1:0.5735383368591402 2:0.04664394766942576 3:2.2110886898334307E-4 4:3.4576680656342153E-4 5:-3.671479457615344E-8 6:-7.409136517768412E-5 7:8.82736169877307E-8 
1.0 1:0.6341523822667899 2:0.1448022069009186 3:0.00493391073058407 4:5.771026698221592E-4 5:-3.121799245273762E-7 6:9.359414407342687E-6 7:-9.224175563129579E-7 
1.0 1:0.6303929303088405 2:0.11301548222890599 3:0.013825138710196552 4:0.0021847460871191023 5:-3.126048313961837E-6 6:6.244492934377781E-5 7:-1.1592971801231616E-5 
1.0 1:0.5742441318263465 2:0.13450290579218874 3:0.003843688827411866 4:1.908230287282879E-4 5:-9.820121125904792E-8 6:-3.3159062361551726E-5 7:-1.3063105827519216E-7 
1.0 1:0.3580384301557693 2:0.03730633936236792 3:0.0014840275422497004 4:3.8282798887975285E-4 5:2.8568626789509367E-7 6:7.362047907977356E-5 7:-4.0577566402427625E-8 
1.0 1:0.5665692836086909 2:0.07937245486094724 3:0.004993709442468981 4:0.001418455802703038 5:3.320960671053639E-6 6:3.3388586641325724E-4 7:1.79528611134803E-6 
1.0 1:0.5505915520062731 2:0.12819179658194882 3:0.008337717144184303 4:5.277033150141311E-4 5:-1.0748166922187215E-6 6:-1.8295675738776369E-4 7:2.6456807242153795E-7 
1.0 1:0.6420666476283505 2:0.18506646397728438 3:0.014621483867342296 4:0.003729776994297644 5:2.7369519130611364E-5 6:0.0015709140604377252 7:-3.091431771773696E-6 
1.0 1:0.6081771783376755 2:0.12587966534374218 3:3.0444565061665027E-4 4:0.0014479551192386649 5:7.241274600010229E-7 6:4.3727950767528554E-4 7:-6.323439036233887E-7 
1.0 1:0.6390839236992554 2:0.1544070517711414 3:0.02054826879763265 4:0.003060824480993831 5:-1.8478517352351546E-6 6:1.204293255944915E-4 7:-2.42037834279493E-5 
1.0 1:0.5765282110031411 2:0.10951934179561791 3:0.011123924770131731 4:0.004466651933342542 5:3.14715124338688E-5 6:0.0012171503278369533 7:-9.17736097401362E-7 
1.0 1:0.49118566132851954 2:0.07711294616880073 3:0.008218634890872933 4:0.002964576751633827 5:1.4327596935839058E-5 6:5.823772457249687E-4 7:-2.975739881260345E-6 
1.0 1:0.6438260899708586 2:0.18730270780105335 3:0.020614926066606427 4:0.011669178092894836 5:1.7701727882671943E-4 6:0.004417907185945078 7:-3.770632855221741E-5 
1.0 1:0.5905675869647568 2:0.14330679465854373 3:0.02678730935962819 4:0.009727830775174352 5:1.4826903259011938E-4 6:0.0032967310642038616 7:-5.172415174675962E-5 
1.0 1:0.7016202884397731 2:0.17056368104575026 3:0.0012356109654174418 4:9.491624903775059E-4 5:-7.764767187106843E-7 6:3.442898789182691E-4 7:-6.735477024188887E-7 
1.0 1:0.33829466159145394 2:0.014826699449596137 3:0.01668182021336362 4:6.045023642437181E-4 5:-1.7189742456726615E-6 6:-6.950048854657114E-5 7:-8.544747884438983E-7 
1.0 1:0.3752076781633224 2:0.005367077058868812 3:0.025953207824891387 4:6.946108988658026E-4 5:2.7273379013181997E-6 6:1.0793677906567846E-5 7:1.1222995576339426E-6 
1.0 1:0.42785666770982983 2:0.005308431263431312 3:0.04045223358123831 4:1.6516968037695376E-4 5:4.1313386302835425E-7 6:-4.946517581736217E-7 7:1.0769443274620761E-7 
1.0 1:0.45353992565213097 2:0.004597670314635939 3:0.05248543023936179 4:1.268368417339758E-5 5:1.0162564188556977E-8 6:-1.9533430790630328E-7 7:-1.9541559540299563E-9 
1.0 1:0.36233097730768615 2:0.006019670591633432 3:0.027846556424205627 4:0.0013081894172696858 5:7.402060466904145E-6 6:2.161003689161623E-5 7:-2.748068918552579E-6 
1.0 1:0.6266836623286565 2:0.05748805996500711 3:0.03161064412739817 4:0.006126903489095433 5:6.531013791005631E-5 6:0.0014045458062016266 7:5.481747034453336E-5 
1.0 1:0.40194779506466527 2:0.012133175088912169 3:0.02549446527464716 4:3.491712132357017E-4 5:3.9327079650391166E-7 6:-8.490449079362965E-6 7:-9.647106146259864E-7 
1.0 1:0.31955468373185636 2:0.004836294488785552 3:0.014736800956102657 4:8.873921514243244E-5 5:5.732691744287479E-8 6:4.481102971002744E-6 7:8.373503029243224E-8 
1.0 1:0.5317046832264488 2:0.0973330511370166 3:1.9270526774855726E-4 4:5.196731082796361E-4 5:6.571230865326485E-8 6:9.497487101128616E-5 7:1.507538601853346E-7 
1.0 1:0.5034315821857909 2:0.09951993594372521 3:0.013335689673866075 4:0.007389760090546654 5:7.304449298473822E-5 6:0.002015626279987205 7:-6.785361002969245E-6 
1.0 1:0.4540713393355471 2:0.05524347631106096 3:0.003924690501394181 4:4.8806379623813354E-4 5:-1.824277887388893E-7 6:4.928865630042594E-5 7:-6.503876187019294E-7 
1.0 1:0.4785571188850433 2:0.07764379986889042 3:0.010750954680300611 4:0.0010377896160207113 5:1.0259130538779658E-6 6:1.7538779689582764E-4 7:-3.311180980021123E-6 
1.0 1:0.5617609591714396 2:0.14456435549501603 3:0.007609223407051251 4:5.660677224186686E-4 5:1.1734750358245743E-6 6:1.9954780196392632E-4 7:5.627987109341739E-8 
1.0 1:0.3537192984644551 2:0.02439901756746196 3:0.008439914828399118 4:0.0018770704852538729 5:7.438533642007273E-6 6:2.926909519623906E-4 7:-6.978027806820837E-7 
1.0 1:0.421649099217829 2:0.0610983302568692 3:0.0025840919122423903 4:0.0010413133128973232 5:3.4609442497755316E-8 6:1.1466599433615405E-4 7:-1.7077997569033394E-6 
1.0 1:0.4073636740825096 2:0.054964252168729605 3:0.002575706728043116 4:0.0010844168914457364 5:2.1905633678636225E-7 6:1.0758280709737469E-4 7:-1.7990650580192062E-6 
1.0 1:0.37341974236242403 2:0.007292209817121977 3:0.027911748313001545 4:0.001411938423672935 5:5.900754667939942E-6 6:2.2969724848895966E-5 7:-6.614154097445956E-6 
1.0 1:0.8054411994806849 2:0.1929046463923485 3:0.006328692984447676 4:0.0193741744024662 5:2.1447322775883197E-4 6:0.002827788273304363 7:-5.015816779907901E-6 
1.0 1:0.8266678534555033 2:0.24208994362210817 3:0.021932177191306176 4:6.373991000514229E-5 5:-6.22470464029403E-8 6:-2.3717689940416112E-5 7:-4.248391951039726E-8 
1.0 1:0.39679501597017275 2:0.032175981736725576 3:0.015508744651608536 4:6.270456450180586E-4 5:-9.516468206179724E-7 6:-8.53709783663993E-5 7:1.7082104513687339E-6 
1.0 1:0.6727943265238002 2:0.2288153801758559 3:0.003905820170185877 4:0.0013920134072769306 5:1.262995154207022E-6 6:2.7059926085714475E-5 7:2.989989347771279E-6 
1.0 1:0.430572461496586 2:0.04263776795948704 3:0.004582019496803676 4:5.495391030605831E-4 5:8.720149729779113E-7 6:1.071273910684197E-4 7:2.914201189039976E-9 
1.0 1:0.7149548691808583 2:0.12769379582264925 3:0.023739372782151415 4:0.005840563805424642 5:6.578135960209939E-5 6:0.0013591470514150838 7:-2.006271005005036E-5 
1.0 1:0.3591722701121554 2:0.020248399346002047 3:0.013496109151886837 4:8.670580433354392E-4 5:-1.3890848856442603E-6 6:-4.216448495427875E-5 7:2.6206522098710344E-6 
1.0 1:0.3195230540758158 2:0.002081199532343495 3:0.016367920405453644 4:3.244704359432605E-4 5:3.5061709867261834E-7 6:1.3553242695917412E-5 7:6.604585618445536E-7 
1.0 1:0.36191379639802324 2:0.01853697662413924 3:0.021544992108206068 4:7.93640936778997E-4 5:-4.461871390202531E-7 6:-8.229839030186398E-5 7:-3.2513054225574795E-6 
1.0 1:0.3663480630830115 2:0.009880675139680115 3:0.02451015265639911 4:4.562372450514682E-4 5:1.2420964360023509E-6 6:1.0315122193852974E-5 7:-8.859172506423642E-7 
1.0 1:0.4129368535938841 2:0.06554164800581998 3:8.417280531418663E-4 4:4.0181311963120815E-4 5:-1.633899425038636E-7 6:9.698311279608098E-5 7:1.6706346512996846E-7 
1.0 1:0.7238714663778492 2:0.17431549249506684 3:0.007791422469525088 4:0.0028245945647723722 5:1.2714481312107307E-5 6:-3.204764823220877E-4 7:-3.731760253616372E-6 
1.0 1:0.4747158193342787 2:0.08649996723295628 3:0.002567785800656247 4:8.772521726911337E-4 5:1.0388157675340175E-6 6:2.2253237471527812E-4 7:-8.089468147428729E-7 
1.0 1:0.6151893076250622 2:0.14989020210640205 3:0.013705152543284718 4:0.002334491729079431 5:5.696714263566465E-6 6:5.636071050982802E-4 7:-1.1912727660892144E-5 
1.0 1:0.5132302603752381 2:0.11106558975663876 3:0.010161337013530822 4:0.0015900624353686874 5:5.45617644413356E-6 6:4.226719618476745E-4 7:3.328702973831121E-6 
1.0 1:0.576627197042977 2:0.12380885717053139 3:0.016954399299991943 4:0.007781387958990969 5:8.621104302735595E-5 6:0.0025947893803521297 7:-2.357842663030142E-5 
1.0 1:0.5216552356825109 2:0.09766588381662185 3:0.005818804837791891 4:0.0027408007752286207 5:1.0193706758229261E-5 6:6.18001477775785E-4 7:-3.986342889162872E-6 
1.0 1:0.7262482050657368 2:0.21867462852420522 3:0.015678515820975146 4:0.002408384403250454 5:7.513993824524414E-6 6:6.787136781249807E-4 7:-1.2749870068927544E-5 
1.0 1:0.4269544434810084 2:0.01162231290349418 3:0.024974109735337972 4:9.98267637522606E-4 5:4.983249107670406E-6 6:4.767271915555823E-5 7:-1.0849033344275035E-7 
1.0 1:0.5462303558883093 2:0.1015700311218323 3:0.015339450406753954 4:0.004645421102508855 5:3.9172964580883026E-5 6:0.0014801356467656498 7:1.7962380681187348E-6 
1.0 1:0.7619954384759502 2:0.2430232011934752 3:0.03909842408992863 4:0.00605616164490941 5:8.999337268825916E-5 6:0.0028351805886419235 7:2.4203905150604475E-5 
1.0 1:0.591371066434128 2:0.13286032430580555 3:0.017402104086014922 4:0.0057397910708249815 5:5.346166198066132E-5 6:0.0018912178767337936 7:-2.0798167195491284E-5 
1.0 1:0.5657243228236373 2:0.12836933244237325 3:0.005779613856445416 4:6.711707633367793E-4 5:1.2704685611011424E-6 6:2.2815625792938562E-4 7:-3.6514667805262846E-7 
1.0 1:0.46674094325108884 2:0.07709234047304082 3:0.0019783805274535236 4:5.633476639874219E-4 5:8.200207460863465E-8 6:-9.213545362250535E-5 7:5.890493452112176E-7 
1.0 1:0.6715423501505614 2:0.1646270863666759 3:0.012883329445555057 4:3.7799837336266755E-4 5:4.964450998048329E-7 6:1.223713228104946E-4 7:6.703460759125115E-7 
1.0 1:0.7763559120316617 2:0.14324585426233813 3:0.02574478524368739 4:0.013828439286066942 5:2.0445517013713448E-4 6:0.0052260839048508655 7:1.620999531895067E-4 
1.0 1:0.7963381024472374 2:0.16486474300184656 3:0.09365789264874297 4:0.02630371352492612 5:0.0013033753220962892 6:0.010492512435792085 7:-7.5545834854687E-5 
1.0 1:0.9197860760552061 2:0.16175431144805097 3:0.13593343170177016 4:0.004904120781540981 5:-1.0873114056191237E-4 6:-0.0014804758067525575 7:-6.488723346099342E-5 
1.0 1:0.7027042751762684 2:0.20032817147138066 3:0.027991014506154765 4:0.006701125283011413 5:8.612928508911943E-5 6:0.002968425804671749 7:3.169621852689709E-5 
1.0 1:0.658612739855158 2:0.1151919953442957 3:0.028257332039978118 4:7.415349430008685E-4 5:3.2063480901271543E-6 6:2.447304213201626E-4 7:-1.1141286978836875E-6 
1.0 1:0.7054088840113495 2:0.15140488799034216 3:0.037044942361748996 4:0.003798082545275544 5:4.0235670963891554E-5 6:9.536529350268226E-4 7:-2.0266852384038514E-5 
1.0 1:0.3561098797902178 2:0.016378160309426164 3:0.021377336690709087 4:5.297442808077871E-4 5:1.251032538983004E-6 6:-1.6100293709458625E-7 7:-1.2700027021226942E-6 
1.0 1:0.4370055405677564 2:0.09019305717738023 3:0.003998833327226613 4:0.0021439534105592768 5:6.144041545300922E-6 6:6.023057637285637E-4 7:1.2877477585022594E-6 
1.0 1:0.32263315105795076 2:0.00428010626307851 3:0.0184694357627252 4:2.9410795972507957E-4 5:3.070115068614942E-7 6:1.707217882795539E-5 7:6.128701926661913E-7 
1.0 1:0.31055954674521524 2:0.006666533018172305 3:0.011312816351038157 4:5.26245827554754E-4 5:6.200898240089371E-7 6:4.1747798080071144E-5 7:1.124353143456655E-6 
1.0 1:0.6104150738434766 2:0.1348147911216594 3:0.01365797793461307 4:4.895307423100919E-4 5:-6.538142163302142E-7 6:-1.5992852658036578E-4 7:1.0838645456997305E-6 
1.0 1:0.47621259242185543 2:0.0023812795470083475 3:0.06050728823633144 4:0.002039043244248093 5:1.2267534979118822E-5 6:5.99910832766053E-5 7:1.9038690011884876E-5 
1.0 1:0.9682997529776733 2:0.18475771130411547 3:0.16879918217579915 4:1.849757045049425E-4 5:-8.498244522605315E-7 6:-2.4742480360666928E-5 7:-5.883455627230355E-7 
1.0 1:0.6973026138019112 2:0.10405033066261692 3:0.053780931325229694 4:0.002790304961096727 5:3.399254255194208E-5 6:5.544808682467905E-4 7:-3.589560912046031E-6 
1.0 1:0.3551457839639752 2:0.0062335256848444764 3:0.016800274418017916 4:2.0000326241312094E-4 5:2.753985216208689E-7 6:1.142588452327033E-5 7:2.420008819668926E-7 
1.0 1:0.561341583500031 2:0.05172836763296804 3:0.02033592519880165 4:0.0022119776017437785 5:-4.3170622384248355E-6 6:4.989843136577778E-4 7:-1.4193516589420806E-5 
1.0 1:0.5305931259613438 2:0.04317219733530941 3:0.013103816555199535 4:1.4292633503922594E-4 5:-7.236719946551694E-8 6:2.467690253334629E-5 7:1.8171976574571305E-7 
1.0 1:0.58551047896652 2:0.05465987982787672 3:0.024967458912969948 4:4.3080886732273975E-4 5:1.2679659870450886E-6 6:3.5198917748942445E-5 7:-6.233566109648796E-7 
1.0 1:0.4482909754352949 2:0.005898159596375862 3:0.037715364522321035 4:0.0017912505913884656 5:-6.558047194717997E-6 6:1.3752546810339616E-4 7:1.3181658223060412E-5 
1.0 1:0.7484694933241054 2:0.1660666323331659 3:0.03512447239607817 4:0.022332695669846185 5:5.231184430521781E-4 6:0.009066095678243442 7:3.42896614613654E-4 
1.0 1:0.9567201728304975 2:0.21214629014011205 3:0.12324237098287483 4:0.0024830996953683214 5:3.478511389344771E-5 6:-4.0921011302574774E-4 7:2.6016690350629475E-5 
1.0 1:0.34271682674498594 2:0.00644784014693348 3:0.018969530832360523 4:1.6197237330782514E-4 5:-2.445653762753283E-7 6:-7.193854995581953E-6 7:1.4420823321761395E-7 
1.0 1:0.722257207274457 2:0.11855137270381998 3:0.014734555043447983 4:3.110658437832193E-4 5:-3.553136414120662E-7 6:-3.619061306666706E-5 7:-5.632518133350381E-7 
1.0 1:0.6938596779465461 2:0.09459284248703856 3:0.07491925126256738 4:0.030873479591208272 5:0.0011974905307621257 6:0.009495129194735814 7:8.779064877610493E-4 
1.0 1:0.6987829929299725 2:0.11423850743459034 3:0.06571040959449108 4:0.02342770153312533 5:8.08829691461232E-4 6:0.007722983399190001 7:4.367257462026256E-4 
1.0 1:0.5635845433376064 2:0.09212541980113434 3:0.033246466182107415 4:0.004533830179226752 5:5.395563709892042E-5 6:0.001264424543264126 7:1.368268989125727E-5 
1.0 1:0.509148593319704 2:0.07944153800385613 3:0.009091080473578463 4:0.0014772187586991137 5:5.408498577484925E-6 6:3.855016345259709E-4 7:-2.3172762566348725E-7 
1.0 1:0.7945258308146541 2:0.17256070697961717 3:0.07409658595845439 4:0.00364311255041981 5:3.9527909996128774E-5 6:0.0013327757593004758 7:4.494763474184644E-5 
1.0 1:0.40182293321928997 2:0.00753564385626019 3:0.01997762455309547 4:0.0013313001483928803 5:-8.767852900371115E-7 6:1.1442595602763648E-4 7:6.809501935300979E-6 
1.0 1:0.33196756879252354 2:0.006127679461612814 3:0.01653814883672839 4:3.5134587364013764E-4 5:5.938095396635952E-7 6:1.5744424651261705E-5 7:6.038830739204965E-7 
1.0 1:0.43210209460738774 2:0.010619106142184734 3:0.02823473022199964 4:9.828145218825802E-4 5:5.1693260629483E-6 6:3.219893088806817E-5 7:-2.86338166918976E-7 
1.0 1:0.4889474427005134 2:0.0715809733484577 3:0.012450376186231316 4:0.0025402728436533135 5:1.388053160269684E-5 6:6.744516604987635E-4 7:3.3796019368217245E-6 
1.0 1:0.5422428519302992 2:0.07753707350143185 3:0.02673751157005321 4:0.011447669535496731 5:1.9095416487954753E-4 6:0.003174245413663691 7:6.040128211330973E-5 
1.0 1:0.48142258362054824 2:0.04551066486836777 3:0.01937488871132851 4:0.0011572732994166836 5:5.269723162954004E-6 6:1.6685811781840182E-4 7:-1.503144294549811E-6 
1.0 1:0.5802030295154257 2:0.06519569004947198 3:0.046375718039406086 4:4.313711853489811E-4 5:-1.197342313709939E-6 6:-7.472363640271056E-5 7:-1.5129280902508776E-6 
1.0 1:0.4270049337231616 2:0.017739947742177898 3:0.025673675572448297 4:2.3658588776962383E-4 5:-2.7779683808895993E-8 6:-2.1864934383131807E-5 7:-5.824167045670705E-7 
1.0 1:0.6838747475715033 2:0.20177146513551122 3:0.0020508124205568974 4:0.0022201432554445474 5:2.344272793517148E-6 6:7.125357955655601E-4 7:4.116645020737555E-6 
1.0 1:0.6928398231148287 2:0.19743584323373625 3:0.01425453397802726 4:5.722396091297105E-4 5:-1.6261488852570666E-6 6:-1.9883024158445775E-4 7:1.6345956423475165E-7 
1.0 1:0.7085924769623919 2:0.1528817746767269 3:0.023619418777254764 4:0.0031369578038475403 5:2.2149505238759264E-5 6:9.41613119208691E-4 7:-1.5443868733373918E-5 
1.0 1:0.7158068024293017 2:0.22819059870494873 3:0.005479323866799401 4:1.1256846595074042E-4 5:-8.399061860549198E-8 6:5.254276448168817E-5 7:2.759427388633921E-8 
1.0 1:0.640338055563535 2:0.19059319462552501 3:0.0034521271139972614 4:0.0011008636882975135 5:-2.070571754256787E-6 6:4.68699919721082E-4 7:5.642210282219438E-7 
1.0 1:0.4574232531575132 2:0.036537848407482816 3:0.011415811018150182 4:0.001670066691270131 5:7.1806399146223465E-6 6:2.6774653100531054E-4 7:-1.2702353970640498E-6 
1.0 1:0.4453062255174698 2:0.05714064214394485 3:0.0026468676925091184 4:9.86883983979202E-4 5:1.565306721111436E-6 6:6.795408843780003E-5 7:-3.064205164259118E-7 
1.0 1:0.480736921514664 2:0.03358587496468547 3:0.013425223149208958 4:1.8170564980305029E-4 5:-6.541288764585942E-8 6:-3.2244191087445114E-5 7:2.7615931910615416E-7 
1.0 1:0.49414718826524284 2:0.0920900615850482 3:0.01063456388644597 4:0.0029078940833550514 5:1.5867770855556554E-5 6:8.075436787428925E-4 7:-3.1151339264646912E-6 
1.0 1:0.4584385953094004 2:0.04898270532440506 3:0.009409366477465809 4:0.001854240096749984 5:6.45570614745344E-6 6:3.8165528073429535E-4 7:4.279137335475788E-6 
1.0 1:0.30781501764959907 2:0.004566879131319798 3:0.014818047850007735 4:3.15611417738019E-4 5:5.78600781715612E-7 6:8.317315275942741E-6 7:3.620419389564987E-7 
1.0 1:0.7185562006016503 2:0.25089443187764604 3:0.02857805708230587 4:0.010024280713437635 5:1.577538896992924E-4 6:0.0040849145618206675 7:-6.245351798690622E-5 
1.0 1:0.49541372928684557 2:0.10540623698182068 3:0.005114789112532412 4:9.757220116940494E-4 5:2.1650044196927964E-6 6:2.915101874642252E-4 7:-2.5295394851937315E-7 
1.0 1:0.4799649657212045 2:0.09114140612860225 3:0.007057117303448476 4:0.0016144688851988903 5:5.397090335734946E-6 6:4.8731996219431777E-4 7:7.541057428701773E-7 
1.0 1:0.6797504147549305 2:0.15879412981447888 3:0.013146535626956179 4:0.0017861821894630437 5:8.631938563017237E-6 6:6.570237529076237E-4 7:-6.387899716515639E-7 
1.0 1:0.5433439547034216 2:0.09650491852498097 3:0.0019766812944166192 4:8.511501067636733E-4 5:-1.1002127964480748E-6 6:2.5242672189026353E-4 7:-9.162671802940966E-8 
1.0 1:0.6836331933474971 2:0.10560797041855177 3:0.02625393640312806 4:0.002894668418579892 5:4.681396541489911E-6 6:4.209284690059078E-5 7:-2.4796505819301786E-5 
1.0 1:0.8797253361295767 2:0.2656445188183662 3:0.15700979367238932 4:0.030604503449321623 5:-3.698997705357614E-5 6:-0.0023967715874457264 7:-0.002121169399275181 
1.0 1:0.33298907104096187 2:0.007025543183652244 3:0.01856256143031732 4:8.815314828509661E-5 5:3.345748262382047E-8 6:-4.676601452339636E-6 7:-1.0768761406249246E-7 
1.0 1:0.6546967671378531 2:0.21408464348094455 3:0.029597035497945796 4:0.010872441722060271 5:1.823465908438016E-4 6:0.003695988963499909 7:-6.92008290515503E-5 
1.0 1:0.44982778063672535 2:0.030056366381084266 3:0.01778029976243113 4:0.004083440509102192 5:1.1680881040840993E-5 6:-1.534821709361154E-4 7:3.2775062260724764E-5 
1.0 1:0.6502607054863112 2:0.2217654523609834 3:0.015894858535800995 4:0.009803233945111381 5:1.223593216952009E-4 6:0.004215468676050084 7:-1.7678343665263113E-6 
1.0 1:0.3730344197784839 2:0.06708773339985585 3:0.0056405577085509775 4:0.004092440347547926 5:1.875004980682781E-5 6:7.534369105025905E-4 7:5.91963717173928E-6 
1.0 1:0.6540722706211962 2:0.22450993490040352 3:0.011234080158040883 4:0.009850547951201178 5:1.0301916712053282E-4 6:0.004161743554219478 7:1.117741820633203E-5 
1.0 1:0.9318322342256263 2:0.1873451795399286 3:0.07278917233740564 4:0.0036793736914810344 5:-5.004038840492591E-5 6:0.0013593080247156098 7:-3.349076339982447E-5 
1.0 1:0.8091122418264391 2:0.23258610762481222 3:0.056433476098267904 4:0.004029471834081698 5:3.32624941629397E-5 6:2.541199770112414E-5 7:5.0850487835116916E-5 
1.0 1:0.7593814402631327 2:0.16351502045166472 3:0.014181669083547468 4:0.015895327197266787 5:7.75595065056432E-6 6:0.006412682920836467 7:2.3852747777111476E-4 
1.0 1:0.7953904343751392 2:0.14393936295999735 3:0.057816556065628355 4:5.637587747217176E-4 5:-2.37873686404057E-6 6:-1.4725356588599677E-4 7:2.168168058141904E-6 
1.0 1:0.5720608743378117 2:0.10480876102525927 3:0.013291512696493086 4:0.004588293928234381 5:3.277946299527888E-5 6:0.00112599974276685 7:1.4470579010653917E-5 
1.0 1:0.35330043257779953 2:0.008404135549239347 3:0.02101607869213787 4:6.326766799164379E-4 5:2.287351515824065E-6 6:4.103319907044326E-5 7:-3.004933929456476E-7 
1.0 1:0.7357145148589112 2:0.26265102389547695 3:0.019817222296920647 4:0.018884537326806103 5:3.4764355948175684E-4 6:0.009123489022691798 7:-1.1228199355784539E-4 
1.0 1:0.6846257825372807 2:0.25855227290687893 3:0.019426604290134673 4:0.0017668553301209112 5:-5.480748055961132E-6 6:-5.752414527472498E-4 7:-8.781417791326379E-6 
1.0 1:0.7914270658017094 2:0.2556547021574056 3:0.018898578975994465 4:0.005727257000358616 5:4.5549313436111295E-5 6:0.002096636974778513 7:3.841345683410215E-5 
1.0 1:0.2710848615238035 2:0.030156085513903894 3:4.0985885994614015E-4 4:5.647925038493084E-4 5:2.6917796673506876E-7 6:8.824167638415676E-5 7:-3.721320220684087E-8 
1.0 1:0.4529722117528489 2:0.06769718396864466 3:0.0038850847506708666 4:0.00363388659936496 5:1.2680597907487542E-5 6:8.98918064425867E-4 7:-5.062798172241895E-6 
1.0 1:0.3686966369279699 2:0.036342141739307436 3:0.017001256747216188 4:0.0018724154269182413 5:9.675700152872597E-6 6:3.270494967933552E-4 7:-4.241091374261879E-6 
1.0 1:0.478734253510806 2:0.07529588685432612 3:0.018695124354452544 4:0.0040568946944073234 5:3.003333985968308E-5 6:0.0010965714968042372 7:-1.8608370589654174E-5 
1.0 1:0.4897970872488841 2:0.06131602789598494 3:0.028229958325248057 4:0.0011950382920659383 5:-1.0305587092754475E-6 6:1.3909907057853618E-4 7:-6.864161854364247E-6 
1.0 1:0.4766450432660981 2:0.1717818583716172 3:0.015051227842014557 4:0.00844634551343745 5:9.492918686388504E-5 6:0.0032221026139665626 7:-7.605751039141488E-6 
1.0 1:0.7666848176153364 2:0.2525228834981282 3:0.016251004534147635 4:3.8654076672901117E-4 5:-9.643191828467762E-7 6:-1.902024989641183E-4 7:-9.304479671911374E-8 
1.0 1:0.6830218576686445 2:0.2553106809423671 3:0.028144463822263016 4:0.012748155069942875 5:2.1876538558470002E-4 6:0.0030622493673060696 7:1.022283002549372E-4 
1.0 1:0.34251025098755417 2:0.003223240828946463 3:0.020260522178966102 4:8.674897612059867E-4 5:2.5821874578114374E-6 6:3.2767718599937835E-5 7:2.561009664233421E-6 
1.0 1:0.5142991255342961 2:0.07367193891590627 3:0.010337207949870269 4:0.004597670042454853 5:2.9638900976444804E-5 6:9.622105011746657E-4 7:-1.1233426199531202E-5 
1.0 1:0.42394052541971705 2:0.00764067450371433 3:0.04261778810980411 4:1.2444462649670846E-4 5:2.2222182389510306E-7 6:5.724957265493469E-6 7:1.8097175449169934E-7 
1.0 1:0.38491380114483653 2:0.0061976410327303525 3:0.03176358398797013 4:0.0012534241068069807 5:7.153855419327412E-6 6:-2.3252934669069528E-5 7:-3.3722131995390643E-6 
1.0 1:0.7184845688966488 2:0.19623996796469773 3:0.041657330114327214 4:0.007453368089627819 5:5.933216941253465E-5 6:0.0012371051326038694 7:1.1716700308199443E-4 
1.0 1:0.5950944145193336 2:0.14850984070829595 3:0.029101711313136498 4:0.005857143999204582 5:6.68409826553892E-5 6:0.0016547672376759708 7:3.71465186811107E-5 
1.0 1:0.638009271572701 2:0.15807201050438868 3:0.012977494890359067 4:6.949768940396398E-4 5:-2.057691026630262E-6 6:-2.71722148537323E-4 7:-3.4935511107393867E-7 
1.0 1:0.6545442450598025 2:0.13274954168572656 3:0.003915932919949141 4:0.02451306681801495 5:1.570678444972629E-4 6:0.008930955762693538 7:-1.8168677050034603E-4 
1.0 1:0.3779761178095118 2:0.0648116047030546 3:0.0022492953915246028 4:4.6580205529164374E-4 5:3.936036216745136E-7 6:4.479858794166016E-5 7:2.690780899120354E-7 
1.0 1:0.329213761025117 2:0.006704775551538345 3:0.02019908509165149 4:1.4931380504875093E-4 5:1.9656739329856298E-7 6:2.610357076398481E-6 7:-1.6912084752041431E-7 
1.0 1:0.5278158908536758 2:0.12405326525855227 3:0.0018118030468139965 4:7.345203006617502E-4 5:8.363314800085724E-7 6:1.838682074864819E-4 7:-1.36184685740015E-7 
1.0 1:0.6017019692237496 2:0.1550501485616743 3:0.011220861224770817 4:0.006147926837445426 5:5.043676654370652E-5 6:0.0023711652890991398 7:7.972465677097309E-6 
1.0 1:0.5776765733204753 2:0.134529214578809 3:0.02062641827613662 4:0.007628006110127861 5:9.560255157553047E-5 6:0.0015535752048141012 7:3.888695995083717E-6 
1.0 1:0.4339983739736297 2:0.07006885071991184 3:0.006811031843029135 4:7.093095844934315E-4 5:-4.818485347592931E-7 6:-7.846364922760714E-5 7:-1.482720680904923E-6 
1.0 1:0.7691496671598873 2:0.2420512390398484 3:0.046423479761422574 4:0.060409313991830145 5:0.003043039533155874 6:0.02943287003460262 7:-9.869166219241307E-4 
1.0 1:0.7257220498304866 2:0.1697108361652125 3:0.005484586007401791 4:0.02438921576510395 5:2.8207650627727176E-4 6:0.009368095278315117 7:-8.038418950064399E-7 
1.0 1:0.6941049854230488 2:0.12172511341654654 3:0.0704503201854181 4:0.003048433625650761 5:4.2370689620245534E-5 6:0.0010635690307282388 7:1.4160053729276804E-5 
1.0 1:0.7251691295598357 2:0.23142391055358202 3:0.0053069133766399275 4:0.0027428408324014974 5:9.439026943617995E-6 6:0.0012493941326901868 7:4.51799274856546E-6 
1.0 1:0.5726945912605099 2:0.12389066825702294 3:0.010752234168779996 4:0.0051276705717916045 5:3.797043556125766E-5 6:0.0018047734045748005 7:2.8075516164801176E-6 
1.0 1:0.5401870629232911 2:0.12843429531561526 3:0.00984846488337867 4:5.92991602590579E-4 5:5.308330213984577E-7 6:6.527274731779723E-5 7:1.3310929102444382E-6 
1.0 1:0.4310544645928902 2:0.04920463694426436 3:0.02816625582223574 4:0.003977832582606361 5:4.004248081465369E-5 6:8.226843098878744E-4 7:-1.3016757420236872E-5 
1.0 1:0.41314762980447806 2:0.037504399058895084 3:0.022260047622477123 4:0.0026687358819988604 5:2.055303595361208E-5 6:5.120196772913025E-4 7:8.201008858489393E-7 
1.0 1:0.7016471341780169 2:0.06682233679724439 3:0.015410355289310035 4:0.013248277997841207 5:2.6760360987205576E-5 6:0.0029269371587711864 7:1.8739670487430022E-4 
1.0 1:0.6930897494848146 2:0.14058540941523323 3:0.10144242348543736 4:0.005233527523942343 5:-9.766980891539025E-5 6:-0.00192587729931477 7:-7.072415232892436E-5 
1.0 1:0.9095601976989308 2:0.1472462142376416 3:0.23985605883981434 4:0.006180912284210573 5:-5.02116097829751E-7 6:-1.5694078771227445E-4 7:-2.3798700887882923E-4 
1.0 1:0.3106622844127991 2:0.005173904459484296 3:0.013900701524427789 4:1.9454231445672349E-4 5:3.1535105837599756E-7 6:5.851481057527243E-6 7:5.386663186891946E-8 
1.0 1:0.42697218973116785 2:0.14028588136075917 3:0.0019346400593788925 4:2.845377203350401E-4 5:-5.381658049183962E-8 6:-6.023407784460116E-5 7:-2.0413579810401806E-7 
1.0 1:0.5500277488931882 2:0.12767164747222898 3:0.005682161960346007 4:0.0019567433825695433 5:6.0009676957186025E-6 6:6.095308807205197E-4 7:-2.5611563340192322E-6 
1.0 1:0.31289636210330696 2:0.0022929352620753144 3:0.016241655982311996 4:1.2199992513494412E-4 5:-6.635155570925045E-8 6:5.267076038294172E-6 7:1.5839758613485124E-7 
1.0 1:0.5727725556858438 2:0.1005655849431474 3:6.693327876043777E-4 4:6.369493286497672E-4 5:3.95524663530717E-7 6:1.9743375452752724E-4 7:-1.2854824591438642E-7 
1.0 1:0.42605710895542676 2:0.045395027328481705 3:0.003834842323409574 4:0.004176895032858164 5:1.670116900408431E-5 6:8.859779547515346E-4 7:-7.235886626665619E-7 
1.0 1:0.4061447728735418 2:0.06268298794455827 3:0.0013961613003157796 4:9.01085592589168E-5 5:2.3236833501890948E-8 6:2.2390772769713956E-5 7:-2.194398916826111E-8 
1.0 1:0.41830535721607087 2:0.06818043375679649 3:0.0030431667757278725 4:4.51607312465831E-4 5:4.760386953040222E-7 6:8.122492292230547E-5 7:2.3168477727492748E-7 
1.0 1:0.4068211712837261 2:0.041385786561774995 3:5.001535362900663E-4 4:5.730042366369957E-4 5:3.0580829946538757E-7 6:3.2030807808014284E-5 7:2.405233500338488E-8 
1.0 1:0.2931005860818506 2:0.001649854927604773 3:0.013274279341712257 4:1.372873052010879E-4 5:-1.3655842741273704E-7 6:5.572206331597688E-6 7:1.2529902826319319E-7 
1.0 1:0.4347466566554204 2:0.0775369900372805 3:0.0022377668207526767 4:0.0033151969482407865 5:8.9465618083592E-6 6:8.799895112312842E-4 7:1.222210445000941E-6 
1.0 1:0.37818930794451894 2:0.05107584864551428 3:4.619131277390371E-4 4:9.632609054629396E-5 5:-1.9069178675324745E-8 6:-1.4442851211695E-5 7:7.015429669167E-9 
1.0 1:1.3947999556820063 2:0.35607314794055067 3:0.7126997455874089 4:0.13559884404519226 5:0.038384062618263805 6:0.03171781685518235 7:0.017424440001518708 
1.0 1:0.7626504313753597 2:0.08728320418149084 3:0.10930288017216924 4:0.022882048598666518 5:6.891277811053543E-4 6:0.006615418676701872 7:9.135838816756793E-4 
1.0 1:0.3004062167878966 2:0.003266523923786966 3:0.014994986403031733 4:2.953618571183949E-5 5:-1.624052551846773E-8 6:-1.6372342055408408E-6 7:-1.1073418052803798E-8 
1.0 1:0.43755659378620826 2:0.04293108291725228 3:0.012153886774465356 4:0.0012144309790938093 5:4.083656189687988E-6 6:1.3591191646406662E-4 7:2.2566595762583305E-6 
1.0 1:0.3293661870407404 2:0.060412331075917446 3:3.973717282524466E-4 4:5.361056701214064E-5 5:7.723722534513328E-9 6:1.3141316469069048E-5 7:1.2537309944810301E-9 
1.0 1:0.5051722173936027 2:0.1164783384938251 3:9.260972844907223E-4 4:0.007269842223581426 5:1.8862488684504945E-5 6:0.0024810062183879327 7:1.6587231398492167E-7 
1.0 1:0.3473226674565434 2:0.057914730852171484 3:0.001267614641208989 4:3.8495567259910914E-4 5:2.686504457354749E-7 6:9.258775739857962E-5 7:1.1850904659275985E-8 
1.0 1:0.3742100000111465 2:0.056880166240371025 3:0.0019688900643692873 4:2.2972039942285283E-4 5:6.391314406132318E-8 6:1.8216633637176013E-5 7:-1.4065325022076917E-7 
1.0 1:0.5649456257962955 2:0.06329771687552231 3:0.027733112709732402 4:2.741764247704653E-4 5:2.934163215922132E-7 6:4.744252411650547E-5 7:6.967801301920981E-7 
1.0 1:0.5072387079727605 2:0.08836928626635793 3:0.012819629470288446 4:0.004294534544830765 5:2.9405347519277766E-5 6:0.0010880537962588395 7:1.2275758376084579E-5 
1.0 1:0.4519014855837388 2:0.07894396282158121 3:0.006374537384702484 4:0.00461328611956564 5:1.989490659610587E-5 6:0.0012959387047173192 7:-1.5167613813343417E-5 
1.0 1:0.47833703124038074 2:0.11123801560570298 3:0.002452933111234095 4:0.0019863898643804785 5:4.132827162118776E-6 6:6.387927212417755E-4 7:1.464686844414262E-6 
1.0 1:0.6194690718559361 2:0.1285238501130866 3:0.013379617976653765 4:0.005145985479469251 5:4.2699656730609326E-5 6:0.0017816623877535717 7:-5.0823197070893036E-8 
1.0 1:0.5718855477113534 2:0.08578410662399809 3:0.013424956731194688 4:3.20796059576138E-4 5:-6.656036744691023E-7 6:-8.444738112866705E-5 7:1.3113778737737119E-8 
1.0 1:0.4810263461593083 2:0.0860786803153367 3:0.0010303872554337857 4:4.079339602382325E-4 5:2.4544198216215826E-7 6:6.6401499903416E-5 7:9.851593631675869E-8 
1.0 1:0.4564520242835341 2:0.05293114956878558 3:0.003999565127558871 4:1.977090878869517E-4 5:-1.694143142945284E-7 6:-3.460369769802141E-5 7:-4.6992970530317E-8 
1.0 1:0.5118321143219664 2:0.06059933812020629 3:0.009231795155391995 4:0.0016246096600415136 5:3.929291533143873E-6 6:3.1717800948963823E-4 7:4.913848327019011E-6 
1.0 1:0.5314304429558818 2:0.06393139943496572 3:0.014826795805365564 4:0.004773537133906466 5:3.979657249369336E-5 6:0.001062526233118197 7:5.383973422432153E-6 
1.0 1:0.5252117704322736 2:0.11194253172286231 3:0.009201158793460956 4:0.0013716464608995087 5:3.2961848710883893E-6 6:3.8718889384911615E-4 7:-3.588871208817863E-6 
1.0 1:0.4699002897772753 2:0.07891375173173315 3:0.005696001044426795 4:0.0029449429423054783 5:1.2059221862712754E-5 6:8.237546013064868E-4 7:2.3303351100003287E-7 
1.0 1:0.8833153970621086 2:0.23843103854277192 3:0.029098022896862738 4:0.01231050729995792 5:2.3114764512496038E-4 6:0.005976252580208601 7:2.9278016800385735E-5 
1.0 1:0.3380384991789376 2:0.04031677856379731 3:0.0023934190896260765 4:0.0014331669474637514 5:2.257604505192317E-6 6:2.877378216612505E-4 7:1.3959505040168186E-6 
1.0 1:0.599492836496091 2:0.029150740217247968 3:0.03339133245975808 4:0.0019324076159704657 5:-1.5293426587518E-5 6:-3.2985846596671794E-4 7:-2.6575910208895432E-6 
1.0 1:0.327986509927946 2:0.022011948315826386 3:0.01189210208354794 4:3.0592878926923543E-4 5:-5.486748659794041E-7 6:-3.9336199149286835E-5 7:1.9864011582901214E-7 
1.0 1:0.3687010395534497 2:0.025042575137622466 3:0.019723897329161535 4:0.0070692730763090815 5:8.167322731043294E-5 6:0.0010638762607526181 7:-1.7251845923456535E-5 
1.0 1:0.5677227770602135 2:0.14736816117124635 3:0.006259180174987637 4:3.313005875681326E-4 5:-9.275404376309432E-8 6:-2.0367350906205253E-5 7:4.679774339667317E-7 
1.0 1:0.4827746599268308 2:0.017233112572527628 3:0.046395273140880496 4:0.017023457042855267 5:3.534674114355687E-4 6:0.001970220130702052 7:-3.2240598798047456E-4 
1.0 1:0.3471191391731729 2:0.01459767238727923 3:0.019778077582073013 4:0.00705805227340751 5:8.174827909260993E-5 6:8.308507365430717E-4 7:-1.6470668947215122E-5 
1.0 1:0.5893103870897202 2:0.1449031410180773 3:0.0011320172101012146 4:3.290270922073532E-4 5:-1.7721241039806582E-7 6:-3.838986874691612E-5 7:-9.443682185595205E-8 
1.0 1:0.38841135920768377 2:0.0681188537010369 3:0.0022599792399302094 4:0.0017671631014858009 5:3.1313590179276617E-6 6:4.594940672482695E-4 7:-1.6329545327355737E-6 
1.0 1:0.367366114454292 2:0.0044489799766573995 3:0.031207244271404845 4:3.9074923326023255E-4 5:1.050979997493569E-6 6:2.2602351907962458E-5 7:8.702373573482265E-7 
1.0 1:0.5219616623936119 2:0.006570941320910608 3:0.0736800851302344 4:0.03154313118433193 5:2.9679117093902484E-5 6:8.853351549834215E-4 7:-0.0015203708367300547 
1.0 1:0.6432664711857186 2:0.2327704458576429 3:0.00933649944142823 4:0.006468793706035868 5:4.6589857346281965E-5 6:0.0028638221742614744 7:-1.8885677020838564E-5 
1.0 1:0.5706514530448599 2:0.10920639293039454 3:0.024800418462960418 4:0.010997161150282514 5:1.711826539315529E-4 6:0.002734834086388175 7:6.0665522913032024E-5 
1.0 1:0.6586812609764584 2:0.1701777247234681 3:0.04860384491734801 4:0.0031285932479066694 5:-2.2911482633942E-5 6:-8.781986688065778E-4 7:-3.103962073920435E-5 
1.0 1:0.7864203837437891 2:0.2201241256317623 3:0.02439181607110889 4:0.0034276234902352355 5:-2.073091667083307E-5 6:-0.0012681326589791572 7:-2.350494265794652E-5 
1.0 1:0.6314850163135446 2:0.23382631484741734 3:0.014741746230791813 4:0.004619565662194632 5:3.811921797533316E-5 6:0.0019829774233305823 7:-4.642046656033458E-7 
1.0 1:0.4636858013997832 2:0.033963457304849225 3:0.015589956322748746 4:0.004736025706429484 5:3.931576061374877E-5 6:5.291674945276555E-4 7:-1.0505848481287288E-5 
1.0 1:0.41963343268689074 2:0.08339185524641246 3:0.005447921617004251 4:5.78780892980155E-4 5:-4.878233655495893E-7 6:-9.275729012055823E-5 7:-9.045963867690107E-7 
1.0 1:0.4495583648682749 2:0.04566047371089167 3:2.9470861513114434E-4 4:1.0097547564256894E-4 5:6.079028149756975E-9 6:1.1690399504044217E-5 7:-1.632369035930897E-8 
1.0 1:0.6059230160782594 2:0.12131814364935883 3:0.010995921862576651 4:0.0038360572023469455 5:2.0490167959720434E-5 6:2.5253408874918216E-4 7:1.4172520585836157E-5 
1.0 1:0.4500892123662183 2:0.06432240471494893 3:0.0024141580565086892 4:1.1080752619654189E-4 5:-5.014042398083945E-8 6:-2.096738756120746E-5 7:-2.7757336624073232E-8 
1.0 1:0.7000233896137013 2:0.21166680187500855 3:9.660187850484202E-4 4:8.127300791423201E-7 5:8.438819499265353E-12 6:-2.8302608139428816E-8 7:2.115128467068887E-11 
1.0 1:0.5741908311032868 2:0.09495117505473061 3:0.006964020376227278 4:0.0021406224980033885 5:1.830703089373515E-6 6:6.277061227636443E-4 7:8.059646254824852E-6 
1.0 1:0.38995805161605657 2:0.07427854289364022 3:0.011187058797372588 4:0.007191731310094012 5:6.385967549120187E-5 6:0.0019514730780314825 7:-9.11700182416609E-6 
1.0 1:0.2996031073670999 2:0.045384442183211006 3:0.007796502326510789 4:0.004427716186045163 5:2.5903587987933068E-5 6:9.282381689256411E-4 7:-2.402305904606142E-6 
1.0 1:0.5723003023451124 2:0.12997690481964147 3:0.003834518521796445 4:0.0018545836467520344 5:4.780814180573524E-6 6:-6.760570446855683E-6 7:1.266277608732493E-6 
1.0 1:0.4529919620099915 2:0.08044824334294035 3:0.003528152397501838 4:0.0018356660640138662 5:4.611179013235786E-6 6:4.995932938114591E-4 7:-7.488174932996406E-7 
1.0 1:0.4456391861172604 2:0.05448104536746547 3:0.0054522584975300326 4:0.0024205444924183437 5:7.630501390683607E-6 6:5.575855508597792E-4 7:4.370318788360087E-6 
1.0 1:0.5768831489341766 2:0.058229157616836225 3:0.010993949191720715 4:0.001297604775996212 5:7.567295595818861E-7 6:-6.985264879214705E-5 7:-4.842293301725831E-6 
1.0 1:0.3615231262103479 2:0.06010250464166716 3:0.0030359230461193703 4:0.0015154465718143304 5:3.14667505466263E-6 6:3.1307451181701487E-4 7:-8.151599636977461E-7 
1.0 1:0.5150600922743678 2:0.12125771857905754 3:0.0020798050477822657 4:2.195228680386266E-4 5:-1.3444821706873295E-7 6:-5.5329468799530796E-5 7:6.265513039677897E-8 
1.0 1:0.3684029792973914 2:0.045486313108153535 3:0.0021108537593804017 4:5.412660801767484E-4 5:4.866930735533322E-7 6:9.843951779365664E-5 7:-3.1282059729803486E-7 
1.0 1:0.6042293089460717 2:0.1786880407870794 3:0.020215427149924352 4:0.010063388511160034 5:1.4346641552416767E-4 6:0.004231528988126848 7:-4.436721152697518E-6 
1.0 1:0.3458605426490804 2:0.0035285375801994427 3:0.01750282725150829 4:4.045004755470546E-4 5:-5.942741114993525E-7 6:2.347439832553486E-5 7:8.973607583646432E-7 
1.0 1:0.7675023359846409 2:0.13202950165485133 3:0.01340093342379713 4:0.0071283001979150695 5:6.484264138653052E-5 6:0.002589988260736732 7:2.548246632731739E-5 
1.0 1:0.7081485211554753 2:0.15061902422730442 3:0.0032580703594136348 4:0.0019275664451684491 5:-4.617491126565562E-6 6:-7.429373007824539E-4 7:-1.4187107267992726E-6 
1.0 1:0.3770700583678648 2:0.059186903482425446 3:0.010700501539359426 4:0.004628745795126335 5:3.2497176877066234E-5 6:0.0010264517176015906 7:-2.2640409372704843E-6 
1.0 1:0.472581781678336 2:0.09879627824179561 3:0.017309412632418197 4:0.006712127569093096 5:7.073305513030295E-5 6:0.0019975017847553744 7:-1.5204836724865137E-5 
1.0 1:0.4430732140850947 2:0.12551801092124595 3:0.0010909481657393409 4:2.1844585542108696E-5 5:4.995097898611269E-10 6:1.4501839672014783E-6 7:3.335034594986594E-9 
1.0 1:0.359389393824995 2:0.08259080480016903 3:0.001776255155926647 4:6.721970516390756E-4 5:7.344852989130147E-7 6:1.8549263561572484E-4 7:-5.99644000322045E-9 
1.0 1:0.3004943833292041 2:0.006623167268299402 3:0.007723115151917388 4:5.0517944697112744E-5 5:2.9114688542655598E-8 6:3.4630080308437903E-6 7:1.2167056151715393E-8 
1.0 1:0.4763095735725876 2:0.1062197196387766 3:0.017672220528880893 4:0.006812919220883006 5:7.41175728056038E-5 6:0.00218043251082309 7:-9.748261545506588E-6 
1.0 1:0.46422263354668936 2:0.08296464594568148 3:0.009362968739878737 4:0.0022509579597233447 5:9.673543421103208E-6 6:5.01049920595664E-4 7:3.6344055147292994E-6 
1.0 1:0.7582193409795402 2:0.21592809451995643 3:0.01177014427054274 4:0.0015548782071783097 5:3.1299602379392547E-6 6:3.28591100645652E-4 7:-5.869329875598236E-6 
1.0 1:0.6526420943582608 2:0.22947877777695033 3:0.015359943361775024 4:0.01190559960602414 5:1.5653070261708652E-4 6:0.004312735948899398 7:3.766487225543299E-5 
1.0 1:0.47976076222045255 2:0.10128639280021393 3:0.019204247467452445 4:0.006634670844179749 5:7.487349534431899E-5 6:0.001985760270693171 7:-1.6038198859834034E-6 
1.0 1:0.42174943297356027 2:0.08539768802707509 3:0.018185569572885446 4:0.009854610395729938 5:1.3083071146477858E-4 6:0.0028751017642172634 7:-1.694618140418697E-5 
1.0 1:0.5197748557841565 2:0.16201659971376786 3:0.0019799656882000033 4:1.794050518868952E-4 5:9.436103010229521E-8 6:2.868395185282791E-5 7:5.0289507611149446E-8 
1.0 1:0.39912401698741734 2:0.08679455268866317 3:0.005877963727575633 4:8.54319893254864E-4 5:1.6737852555961203E-6 6:1.6630127938065486E-4 7:9.292820458149548E-7 
1.0 1:0.5487871332177447 2:0.11570007349311982 3:0.016251649544531257 4:0.010011630160509825 5:1.2767310692615125E-4 6:0.0033242640609603574 7:2.8277326603480013E-6 
1.0 1:0.6763388969569912 2:0.18722700596486 3:0.038158449914837085 4:0.008780681860536085 5:1.5875503623956705E-4 6:0.0032026292057553978 7:2.5097302084060817E-5 
1.0 1:0.46490834729845926 2:0.12023420348889194 3:0.02631312155417073 4:0.011497356848318326 5:1.997329976303531E-4 6:0.0036512914464344724 7:9.905097195742375E-6 
1.0 1:0.607988741182569 2:0.13190722201447613 3:0.009660774615068455 4:0.005824982467386147 5:4.354089718288324E-5 6:0.0020539884224943447 7:3.685842388879705E-6 
1.0 1:0.6900101232812195 2:0.19224779609541093 3:0.0011655681381701954 4:4.225670001842474E-5 5:-4.068135531661467E-9 6:-1.2815638668239556E-5 7:-8.449731136114108E-9 
1.0 1:0.31334484054613 2:0.005395880234518294 3:0.0114440501836042 4:2.2789185823062614E-4 5:3.220271857336219E-7 6:9.68831509211994E-6 7:1.7816983809760663E-7 
1.0 1:0.29166163254810573 2:0.003746075824285376 3:0.010371064627582935 4:3.4025071798254517E-5 5:2.0123236196316307E-8 6:6.205944063898016E-7 7:-1.8926457386566104E-9 
1.0 1:0.566951350353082 2:0.12811329575677505 3:0.00442759066468713 4:0.0012163442307488769 5:2.303931937845762E-6 6:3.459809632954411E-4 7:1.6308497153287281E-6 
1.0 1:0.5278503230527618 2:0.10616837655330272 3:0.0033541373045512294 4:3.0547141414176215E-4 5:-1.3461598755036842E-7 6:-3.5929109072096964E-6 7:-2.7836337438195677E-7 
1.0 1:0.5151461596099519 2:0.10777511084522357 3:0.0024892301894856774 4:1.1317566017585943E-4 5:5.8378716368400045E-8 6:-1.4505981234433134E-5 7:-1.4156424876926074E-8 
1.0 1:0.7779869149528393 2:0.2612971528671876 3:0.03018773507824005 4:0.0020146819291387585 5:1.4712986811152831E-5 6:9.98569473563872E-4 7:5.512495709084483E-6 
1.0 1:0.4318967992616741 2:0.05782725028436239 3:7.864044749171504E-4 4:4.5699233569202795E-5 5:3.399597754565202E-9 6:3.4410720675881403E-6 7:7.968471749130775E-9 
1.0 1:0.3319721405409247 2:0.0019414754572911052 3:0.021382116389107687 4:1.303559604296499E-4 5:5.755145173714606E-8 6:5.3800189864531645E-6 7:2.0988397959819235E-7 
1.0 1:0.30725309356264907 2:0.044947163253855546 3:0.006741353308308025 4:0.002749180073057857 5:1.1809017129800137E-5 6:5.612808640190323E-4 7:-7.879280550404894E-7 
1.0 1:0.4704084986067924 2:0.10427693847674621 3:0.008503460720412172 4:0.006790644277147372 5:4.949835699045905E-5 6:0.0019809737280134694 7:1.4582591744377447E-5 
1.0 1:0.5548259725048091 2:0.16541759446984067 3:0.003079853767491327 4:0.004876799633000598 5:1.8160297017492638E-5 6:0.0017029102401526644 7:-5.236682719860008E-6 
1.0 1:1.1403570443387399 2:0.27226548041418674 3:0.235611847526399 4:0.09879800785731166 5:0.015072042146354048 6:0.05141481121014517 7:-2.2582905007263558E-4 
1.0 1:0.41060340798381434 2:0.06550134044990434 3:0.004420844033433244 4:6.128072064761361E-4 5:-6.314563714526883E-7 6:-7.463464311152389E-5 7:7.86528977700848E-7 
1.0 1:0.31480072588333885 2:0.006869832177513239 3:0.014478544202670886 4:4.2063578547966345E-4 5:9.125923077323642E-7 6:2.134611236711703E-6 7:-4.947125003854824E-7 
1.0 1:0.7084330071340077 2:0.20857656313246226 3:0.002308520588525741 4:3.7096442774508457E-4 5:1.6802427628939917E-9 6:-9.079274531012356E-5 7:3.4328914727596066E-7 
1.0 1:0.6339792769799468 2:0.13734926355704657 3:0.010386282750743853 4:0.0033755955253073878 5:1.7086949720013345E-5 6:0.0012502256868427808 7:1.0369722755298617E-5 
1.0 1:0.6616576321792426 2:0.15675288626903158 3:0.006743458565497434 4:3.973205210964461E-4 5:-3.1730936813426934E-7 6:-8.533707881870411E-6 7:-5.676979684973974E-7 
1.0 1:0.4708692431793322 2:0.07676381925701505 3:0.014089467065693667 4:0.0024473711301386328 5:1.294757711308554E-5 6:6.19075442806729E-4 7:-6.236620850018921E-6 
1.0 1:0.6367287606583535 2:0.182720620753275 3:0.006588148626542717 4:1.6036879419407992E-4 5:-1.2979314794244505E-7 6:3.936935963584398E-6 7:1.016160650942686E-7 
1.0 1:0.3388850671913347 2:0.010655792057452188 3:0.01927524605338312 4:1.158703037571757E-4 5:1.2568901448909697E-7 6:-4.826924489460427E-7 7:-1.191139027907609E-7 
1.0 1:0.3309127308172546 2:0.058593004612229105 3:0.012787261052813503 4:0.007838349698260264 5:7.813950324385444E-5 6:0.0018767005320778616 7:-7.2377256034073746E-6 
1.0 1:0.6277894057881994 2:0.15737780850533115 3:0.014183237657543661 4:0.0011775063750275037 5:-4.780576488269846E-6 6:-3.613936896546046E-4 7:5.497052901518586E-7 
1.0 1:0.3502910151518037 2:0.035266254283866275 3:0.0011459446243538996 4:3.249768411327176E-4 5:1.0395099480960708E-7 6:5.767510422962433E-5 7:1.6889023686843578E-7 
1.0 1:0.8005699402815107 2:0.2261848947421649 3:0.03243206234079606 4:0.009806736189928476 5:1.6985713292939922E-4 6:0.004630990966887669 7:4.166941853815497E-5 
1.0 1:0.3584811394819926 2:0.053768388784142744 3:0.0010574086040923522 4:3.260288933242574E-5 5:8.115307860076111E-10 6:6.300583896193053E-6 7:5.998842606302207E-9 
1.0 1:0.31329985682685113 2:0.004130315904769559 3:0.011338951676608637 4:1.7292281050354337E-4 5:-1.1390782201294786E-7 6:7.470824453507424E-6 7:2.1367344269074428E-7 
1.0 1:0.5318362319268233 2:0.10893038023983564 3:0.006458084240519701 4:0.003614631477841225 5:1.716173621927783E-5 6:0.0011924617570021657 7:-3.2360411605048505E-6 
1.0 1:0.3150187555968331 2:0.03032256648166749 3:5.441693074202843E-4 4:2.4746134982601156E-4 5:8.00984581618488E-8 6:4.2115145593779944E-5 7:-4.278411962458088E-8 
1.0 1:0.6205966465014421 2:0.11013603583214178 3:0.002278461323213481 4:0.01807662990624779 5:1.0465464151972987E-4 6:0.005693126732002285 7:-5.005822097037759E-5 
1.0 1:0.7789787108491991 2:0.215820965075406 3:0.03196448025140407 4:0.030100838032538893 5:9.302601222182245E-4 6:0.013982843501787138 7:7.99317965891784E-5 
1.0 1:0.7376456433385044 2:0.16782514081440852 3:9.826325085192842E-4 4:0.002917691607290977 5:1.3128469942881555E-6 6:2.360467263085857E-4 7:-4.762682575919019E-6 
1.0 1:0.6510865348050558 2:0.1127564992782074 3:0.050510796568201025 4:0.0077288511130539405 5:8.582202866275578E-5 6:0.001485429853351353 7:1.263115433370534E-4 
1.0 1:0.614997174106548 2:0.13589591307183954 3:0.027223922818049952 4:0.0036741896950457245 5:2.5253472008911442E-5 6:0.0010215543100411213 7:2.6694160402886613E-5 
1.0 1:0.5985610604058899 2:0.13534453307006772 3:0.051087958597831516 4:0.02730051970952163 5:8.922267618264175E-4 6:0.007014027692920876 7:4.934041753760994E-4 
1.0 1:0.6791283991092567 2:0.1706385590866585 3:0.04386610050124643 4:0.013638274883480121 5:1.9066508861332953E-4 6:0.0032199771905454637 7:2.737230733079655E-4 
1.0 1:0.7324798836753548 2:0.20833475233487223 3:0.01766310738402221 4:2.858357074433224E-4 5:4.7035893694364954E-7 6:-7.54272100742665E-5 7:-4.3732761384178106E-7 
1.0 1:0.4916031297839768 2:0.12821307502850135 3:0.00716497576981186 4:0.003022914917862438 5:1.3966773970297931E-5 6:0.001078492693471314 7:1.6883447044381235E-6 
1.0 1:0.5865576967472133 2:0.16493717081173542 3:0.017186984245824044 4:0.004837275275990434 5:3.799425918734157E-5 6:0.0015264001048112862 7:2.2401020006591416E-5 
1.0 1:0.6072224668527645 2:0.18228275874874422 3:0.011211462264428245 4:0.0035219711588727587 5:2.1976048348653668E-5 6:0.0014174398146531953 7:2.618066828879552E-6 
1.0 1:0.40359062806296087 2:0.08497017656222239 3:0.01153214567303629 4:0.0053473710407334315 5:4.195656016851528E-5 6:0.0015108107082384763 7:-1.7224511179579083E-6 
1.0 1:0.4904557297238654 2:0.1322281503813432 3:0.0028903807397762226 4:5.2191644851816505E-5 5:4.6437246521264605E-10 6:1.5207801777173217E-5 7:2.026585913853313E-8 
1.0 1:0.6535179957043213 2:0.21596177833869132 3:0.03115406569033839 4:0.005743744568889544 5:7.41256840629984E-5 6:0.0013362713084263437 7:2.021766730346407E-5 
1.0 1:0.5582776343503684 2:0.20686368806508498 3:0.004359747536521229 4:0.0058829164285824475 5:2.3759310611119474E-5 6:0.0025928354014458066 7:1.7976103459125607E-5 
1.0 1:0.426134506819697 2:0.08190662840898247 3:0.01255971392802547 4:0.0035860343719531403 5:2.4034909511815546E-5 6:8.992627261079565E-4 7:1.2311948159068492E-6 
1.0 1:0.3015367528047172 2:0.051323255259603996 3:0.005606186550584475 4:0.0017535887116503991 5:5.422324973079776E-6 6:3.378179012088061E-4 7:9.106428715172216E-7 
1.0 1:0.3631965522216299 2:0.056908004617496524 3:4.452351850841069E-4 4:5.567258878452897E-5 5:8.36218456907118E-9 6:1.0614603169262878E-5 7:2.626945583795736E-9 
1.0 1:0.36115013316262484 2:0.06372341828180772 3:0.010704296504894554 4:0.004514666754838435 5:3.124941672451099E-5 6:0.0011158110483413454 7:-2.9106147687676998E-6 
1.0 1:0.481619171305305 2:0.10433618472792527 3:0.011808636292442859 4:0.002331997200117798 5:1.115100375103938E-5 6:4.6761039467700785E-4 7:5.040929835581713E-6 
1.0 1:0.559771422747821 2:0.1469304147669886 3:3.68806700244031E-4 4:0.0013332926723021504 5:4.901844967687914E-7 6:4.8454120477407813E-4 7:7.961455000365401E-7 
1.0 1:0.5779500871091001 2:0.16653372861946097 3:3.0439002716880592E-5 4:6.256531531721376E-4 5:8.527480594171802E-8 6:1.8688733910079887E-4 7:-1.3525066012872831E-8 
1.0 1:0.29801633534600286 2:0.004052451483015875 3:0.009339694233446317 4:7.420161332911942E-5 5:-6.017742083566358E-8 6:4.541131051621709E-6 7:1.3941473041622958E-8 
1.0 1:0.716791031783905 2:0.1762314136160543 3:0.0015052647880674553 4:1.6791151642035784E-4 5:1.8652814842513208E-8 6:-6.969551139312425E-5 7:-8.232990075322243E-8 
1.0 1:0.6838747475715033 2:0.20177146513551122 3:0.0020508124205568974 4:0.0022201432554445474 5:2.344272793517148E-6 6:7.125357955655601E-4 7:4.116645020737555E-6 
1.0 1:0.6177403011465497 2:0.1810629285742053 3:0.030015224473940318 4:0.020541185338526204 5:5.079721034224205E-4 6:0.008665794008433546 7:-4.5944630940608617E-5 
1.0 1:0.47183867080766584 2:0.08987759621565122 3:7.232543243510139E-4 4:6.811585215683385E-5 5:6.195250119205575E-9 6:8.73337613754471E-6 7:-1.37912111116776E-8 
1.0 1:0.6311908268004858 2:0.18184917885856272 3:0.0023992000711142245 4:2.754031834067588E-4 5:2.2373880977082098E-7 6:-1.4437914526429707E-5 7:-7.522704801782666E-9 
1.0 1:0.5143809813723869 2:0.11946478795514917 3:0.0040407378255800245 4:3.193759558300143E-4 5:3.5438331734273885E-7 6:1.1020087532561697E-4 7:7.775754590127628E-8 
1.0 1:0.6928398231148287 2:0.19743584323373625 3:0.01425453397802726 4:5.722396091297105E-4 5:-1.6261488852570666E-6 6:-1.9883024158445775E-4 7:1.6345956423475165E-7 
1.0 1:0.31436999987251274 2:0.033876413911926834 3:6.304976494520888E-4 4:1.3545970655926514E-5 5:-1.2470763382558955E-9 6:-1.9230915180583587E-6 7:1.0937321915347233E-10 
1.0 1:0.4593116327122656 2:0.07486992530850946 3:0.006155497656808415 4:0.0018056996737550902 5:5.674129833615086E-6 6:4.919254547067856E-4 7:-2.011271640490633E-6 
1.0 1:0.4961844495768042 2:0.09664462868356077 3:0.0048819072860096365 4:2.043946502327715E-4 5:-1.2928211201025502E-7 6:-6.294902375497636E-5 7:-1.5802813536598055E-7 
1.0 1:0.7185562006016503 2:0.25089443187764604 3:0.02857805708230587 4:0.010024280713437635 5:1.577538896992924E-4 6:0.0040849145618206675 7:-6.245351798690622E-5 
1.0 1:0.640338055563535 2:0.19059319462552501 3:0.0034521271139972614 4:0.0011008636882975135 5:-2.070571754256787E-6 6:4.68699919721082E-4 7:5.642210282219438E-7 
1.0 1:0.7009049523926429 2:0.13112087543251427 3:0.02111308332778397 4:9.460032634587257E-4 5:4.164610094411945E-6 6:3.374822970848103E-4 7:-7.282474008731091E-7 
1.0 1:0.7085924769623919 2:0.1528817746767269 3:0.023619418777254764 4:0.0031369578038475403 5:2.2149505238759264E-5 6:9.41613119208691E-4 7:-1.5443868733373918E-5 
1.0 1:0.8613673230070168 2:0.21502883378493015 3:0.09759487367615098 4:0.05540011238554663 5:0.004070857101876567 6:0.025081206696339176 7:1.4974209938831032E-4 
1.0 1:0.5009668198347115 2:0.07122190866445885 3:0.0064141771265549315 4:5.534608642574023E-4 5:8.34767982287774E-7 6:1.4090067287255142E-4 7:6.249747120487808E-7 
1.0 1:0.3937961237373798 2:0.06070573011577933 3:0.012769816445788099 4:0.011693587197225706 5:1.385696895271604E-4 6:0.0028493243561924977 7:-3.488744337753013E-5 
1.0 1:0.49541372928684557 2:0.10540623698182068 3:0.005114789112532412 4:9.757220116940494E-4 5:2.1650044196927964E-6 6:2.915101874642252E-4 7:-2.5295394851937315E-7 
1.0 1:0.4799649657212045 2:0.09114140612860225 3:0.007057117303448476 4:0.0016144688851988903 5:5.397090335734946E-6 6:4.8731996219431777E-4 7:7.541057428701773E-7 
1.0 1:0.5433439547034216 2:0.09650491852498097 3:0.0019766812944166192 4:8.511501067636733E-4 5:-1.1002127964480748E-6 6:2.5242672189026353E-4 7:-9.162671802940966E-8 
1.0 1:0.31279173613654376 2:0.0052874088803656245 3:0.014334195415487168 4:3.089866734187312E-5 5:1.9313955905654753E-8 6:-2.5129385790078395E-7 7:-7.058836673086647E-9 
1.0 1:0.640338055563535 2:0.19059319462552501 3:0.0034521271139972614 4:0.0011008636882975135 5:-2.070571754256787E-6 6:4.68699919721082E-4 7:5.642210282219438E-7 
1.0 1:0.6836331933474971 2:0.10560797041855177 3:0.02625393640312806 4:0.002894668418579892 5:4.681396541489911E-6 6:4.209284690059078E-5 7:-2.4796505819301786E-5 
1.0 1:0.4574232531575132 2:0.036537848407482816 3:0.011415811018150182 4:0.001670066691270131 5:7.1806399146223465E-6 6:2.6774653100531054E-4 7:-1.2702353970640498E-6 
1.0 1:0.4453062255174698 2:0.05714064214394485 3:0.0026468676925091184 4:9.86883983979202E-4 5:1.565306721111436E-6 6:6.795408843780003E-5 7:-3.064205164259118E-7 
1.0 1:0.49414718826524284 2:0.0920900615850482 3:0.01063456388644597 4:0.0029078940833550514 5:1.5867770855556554E-5 6:8.075436787428925E-4 7:-3.1151339264646912E-6 
1.0 1:0.519445592356563 2:0.07655538467309285 3:0.013055069148278226 4:0.002810045209459047 5:1.701455539736814E-5 6:7.740944380809049E-4 7:-4.304596475028354E-7 
1.0 1:0.6530071139583558 2:0.19647562309505007 3:0.007916470037205761 4:0.0017686099030253745 5:5.25607205294061E-6 6:6.305846930035616E-4 7:4.021073136493507E-6 
1.0 1:0.49328642189011546 2:0.07098513642271109 3:0.009352131586077235 4:0.0017298815956020442 5:6.258170411783628E-6 6:4.364725845743212E-4 7:3.0410610091907144E-6 
1.0 1:0.685505035868286 2:0.11649748962309568 3:0.08158202908617765 4:0.02705340524430707 5:0.0012541929461752372 6:0.008407350808609155 7:-2.0573417347779501E-4 
1.0 1:0.3750824517447715 2:0.03500432411971235 3:7.423800504924377E-4 4:2.3993644611349912E-4 5:9.072282581642435E-8 6:4.144032697856322E-5 7:4.4987553301963764E-8 
1.0 1:0.7320177471191993 2:0.23560919111493228 3:0.04350337351437789 4:0.020198429259806028 5:5.803497445762764E-4 6:0.009346530444752402 7:1.4725178158404495E-4 
1.0 1:0.7786958070276784 2:0.08779848463312842 3:0.04011009833921496 4:0.010872985359299706 5:5.250962122698295E-5 6:0.002976794172454476 7:2.2090998929505786E-4 
1.0 1:0.8303102869246592 2:0.23332957977575064 3:0.04438537540104019 4:0.060902752169561786 5:0.0031213511434067935 6:0.02545374656943801 7:-5.326320890028811E-4 
1.0 1:0.7228178772253397 2:0.2014303838222453 3:0.043862762862712394 4:0.06253266809971825 5:0.003243013802187263 6:0.026218468140798402 7:4.56447748795233E-4 
1.0 1:0.5797019249938424 2:0.09617262839614185 3:0.007292897794394465 4:0.005017002893026994 5:2.948329525055059E-5 6:0.0015555681955800955 7:7.188825625142367E-6 
1.0 1:0.45502279705098786 2:0.08229841961735179 3:0.009896458450043881 4:0.0037378079883023567 5:2.071967139503781E-5 6:8.474343308282183E-4 7:9.354413480624123E-6 
1.0 1:0.6933181334917997 2:0.10679994382912425 3:0.022178052666242825 4:0.0027141071684695633 5:-7.881117329893014E-6 6:7.074908300045734E-4 7:-1.9526824371622265E-5 
1.0 1:0.40677846709359183 2:0.07902143640339085 3:0.0016737664337100069 4:1.5074563055364232E-4 5:7.437424963506333E-8 6:4.137080947643737E-5 7:-1.4215938864089157E-8 
1.0 1:0.6637267324858985 2:0.1091728774215133 3:0.01582255598050644 4:0.003944441921675512 5:-9.14216518084814E-6 6:0.0010132850180673547 7:-2.9790138642373912E-5 
1.0 1:0.43297630166821566 2:0.05271084711863468 3:0.005708524856662916 4:3.253918997891232E-4 5:-4.0530001028893E-7 6:-2.557753539112784E-5 7:1.800128184905966E-7 
1.0 1:0.522679858819303 2:0.09912607057594672 3:0.011412660063591765 4:0.004279072580537836 5:2.983436540335597E-5 6:0.0013471919606998094 7:2.028068057122212E-6 
1.0 1:0.39778213352064984 2:0.03790500033486202 3:0.002323908953248205 4:1.946092601499732E-4 5:-7.894472505061012E-8 6:7.589582545919365E-7 7:1.043831744602495E-7 
1.0 1:0.4547695053262784 2:0.06368578976484415 3:0.00309438356618886 4:4.430684493924109E-4 5:-3.9579995275756035E-7 6:-2.0073151737371395E-5 7:3.3539169166995984E-7 
1.0 1:0.44710249282721093 2:0.060780749961359376 3:0.0014394255231997563 4:2.742966722237384E-4 5:1.7009931130368387E-7 6:-2.8959503173209308E-5 7:-2.7797093153662445E-8 
1.0 1:0.30765547764175627 2:0.035090967409093364 3:0.0010335660987550654 4:3.896536177516788E-4 5:2.4221623994684797E-7 6:7.028889036921518E-5 7:4.978138287493346E-8 
1.0 1:0.5253288926072878 2:0.057671557152934566 3:0.03476136129371185 4:0.001461291373058607 5:-6.830103000493722E-6 6:-3.4494349414817524E-4 7:7.862511857859524E-6 
1.0 1:0.5435570285541513 2:0.1036877537739394 3:0.008031528573893196 4:0.002222672157466756 5:9.28375020677027E-6 6:6.9756155755765E-4 7:1.4152796673005661E-6 
1.0 1:0.27928939928444324 2:0.020834279661850533 3:0.003635151406151434 4:2.206654562338546E-4 5:-1.6078606005023369E-7 6:-2.8536705264383585E-5 7:-1.1492276685059161E-7 
1.0 1:0.4289857875737503 2:0.08553439064450008 3:0.004788550118928387 4:0.0012624114402733696 5:3.0961800458687827E-6 6:3.3714577290125527E-4 7:2.1834072629182778E-7 
1.0 1:0.5180078633796131 2:0.07803074371644961 3:0.01604548373509896 4:5.830442461882019E-4 5:1.7820110904901837E-6 6:2.290532408764075E-5 7:-6.824864103857281E-8 
1.0 1:0.492660458552796 2:0.07242625278566926 3:0.006829945415358077 4:0.0015477372249777833 5:2.925015345617327E-6 6:2.834684368432796E-4 7:4.094743154288762E-6 
1.0 1:0.47664152312124336 2:0.08904468619772024 3:0.0027854872025571756 4:1.8292655686488084E-4 5:9.597229988149104E-8 6:5.458317848879315E-5 7:8.854148736398295E-8 
1.0 1:0.30639147808052575 2:0.045713587691359074 3:0.001697698532678759 4:6.128631846202872E-4 5:6.251193097314173E-7 6:1.289527616889524E-4 7:4.7755841202857614E-9 
1.0 1:0.34430607899710425 2:0.05717851383500757 3:0.003420028286173266 4:8.882373352468438E-4 5:1.4878664902101425E-6 6:1.8323330455165813E-4 7:4.27750372397244E-7 
1.0 1:0.3645617071253978 2:0.06643420884936703 3:0.0013089664404114102 4:1.237673734650163E-4 5:4.441071097849767E-8 6:2.8275074564857445E-5 7:2.2569358073534537E-8 
1.0 1:0.3622913898834895 2:0.04770507806727408 3:0.0036570266976235976 4:0.0010516567420202527 5:2.0560111543775123E-6 6:2.243138711266147E-4 7:-1.6234104387490354E-7 
1.0 1:0.533749160862899 2:0.12641612729468132 3:0.003908850021915024 4:3.0982662807133726E-4 5:2.977122607774237E-7 6:3.0079991737371825E-5 7:-1.6619474566068873E-7 
1.0 1:0.30895501150012095 2:0.03184831648810678 3:6.136556963169328E-4 4:1.2120786533933236E-4 5:2.6521660769513513E-8 6:2.1324255619719986E-5 7:1.973176014651899E-8 
1.0 1:0.606304165161245 2:0.17416463397948345 3:0.01453529446802949 4:0.008850763384705968 5:9.822003220882558E-5 6:0.0035604368782105695 7:-2.0751675133131107E-5 
1.0 1:0.3706612386943262 2:0.02858928631830788 3:0.009724063427472139 4:6.146501749791324E-4 5:1.4837414518458272E-6 6:1.0376438166942583E-4 7:-2.3780715728663923E-7 
1.0 1:0.42700995774296335 2:0.06652906815825428 3:0.004520958508789861 4:0.0011830166919706714 5:2.520700879321873E-6 6:2.996048644226948E-4 7:1.0636082067218163E-6 
1.0 1:0.4982610586223398 2:0.017295520529501014 3:0.014488065598012242 4:0.009902218823847092 5:8.539289194133986E-5 6:0.0012290066946247715 7:8.231199008283135E-5 
1.0 1:0.6284418152798397 2:0.16855033112702783 3:0.011515045473093108 4:0.00891500117851747 5:8.902413802414362E-5 6:0.003064629178422375 7:-1.5283003507022264E-5 
1.0 1:0.5327929204464664 2:0.08765494398425865 3:0.02105815980607096 4:0.010541811079291624 5:1.4017270675395884E-4 6:0.0030989264458768026 7:7.086211454297119E-5 
1.0 1:0.4687877175086914 2:0.08346962895116436 3:0.0031935459179460537 4:9.014719909305256E-4 5:3.010784936193605E-7 6:1.6866485362524705E-4 7:1.4996294621332257E-6 
1.0 1:0.38820171431908784 2:0.05900724919475486 3:0.005517059033900291 4:0.006776815738694736 5:4.143469988614706E-5 6:0.0016302660231559724 7:4.716465801868519E-7 
1.0 1:0.5478868131395775 2:0.1125047820872686 3:0.003733418403333017 4:3.089910510742379E-4 5:3.1973846390100855E-7 6:8.017172301977673E-6 7:-8.892208031957204E-8 
1.0 1:0.41705255306675143 2:0.08258970479430033 3:0.007049737259580413 4:0.0027302110038104864 5:1.1838852494851862E-5 6:7.599736519901693E-4 7:-1.8198151678019822E-6 
1.0 1:0.5873010026050502 2:0.11458414998750543 3:0.010562769274287617 4:9.746864506281818E-4 5:9.520517065477157E-8 6:1.4013818042162365E-4 7:-3.1259711249495355E-6 
1.0 1:0.8802672969026765 2:0.2613564607067451 3:0.04300016217224899 4:0.00659320435161681 5:-8.363308048705878E-5 6:-0.001040712567150231 7:-7.300503581190505E-5 
1.0 1:0.549013176118967 2:0.11069099391185569 3:0.002064202107013727 4:6.576894900811512E-4 5:4.047772224422943E-7 6:1.9241769397486164E-4 7:6.506876698391113E-7 
1.0 1:0.8425699770257904 2:0.21131525818070102 3:9.5097318652458E-4 4:0.001790356361210578 5:6.089862084907679E-7 6:-6.845980465964815E-4 7:2.255337571846766E-6 
1.0 1:0.5542959222457512 2:0.1509071156335733 3:0.009491880771084545 4:0.008767770231114292 5:7.983872794775943E-5 6:0.003145938772975499 7:-4.839098797130618E-6 
1.0 1:0.38792848122519746 2:0.060557147373916556 3:0.004473648363157338 4:0.0015710526423402223 5:4.000172556829764E-6 6:3.6206056447275265E-4 7:1.1601750374449507E-6 
1.0 1:0.6189886220162347 2:0.16208559032272737 3:0.010702740170159566 4:0.002085397193755653 5:2.7630031304300816E-6 6:7.593616000925207E-4 7:-9.456771022303863E-6 
1.0 1:0.5611150120126305 2:0.11064305493205173 3:9.67376078555401E-4 4:4.689575583225197E-4 5:-1.331642983735643E-7 6:5.945480294016471E-5 7:-2.8641988188948104E-7 
1.0 1:0.5988650772976412 2:0.19234093460054302 3:0.010062504558136353 4:7.412345912044603E-4 5:-1.957961846305147E-6 6:-3.1589924189610077E-4 7:5.141949617622759E-7 
1.0 1:0.4612517705050677 2:0.0894480559456358 3:0.0016086595895293445 4:6.909454027608201E-4 5:-3.9669293469502395E-9 6:1.6802205389096904E-4 7:7.28435719468057E-7 
1.0 1:0.5384602729896284 2:0.09114968135406579 3:0.0020914816461397676 4:0.003154477215636816 5:-1.283140432548205E-6 6:7.033753879484906E-4 7:8.000236196494571E-6 
1.0 1:0.6156421329826554 2:0.20058490070171386 3:0.024227684629748735 4:0.012123229011030585 5:2.0370227714908972E-4 6:0.005426001744850078 7:-4.091296211593112E-5 
1.0 1:0.8410438876085622 2:0.20554984334332277 3:0.0620826316970678 4:0.033186467648576745 5:0.0011219235172470396 6:0.012359630543418773 7:0.0010051792723512888 
1.0 1:0.48653467423791535 2:0.11602959874179691 3:0.00818828834537792 4:0.0013487450880959304 5:3.5713513189785272E-6 6:2.866441591736744E-4 7:2.708427618760172E-6 
1.0 1:0.805340526307054 2:0.20758847759759164 3:0.03259147218235354 4:0.01580509275444869 5:2.9818282088043294E-4 6:0.006632036788687916 7:1.9940483004335792E-4 
1.0 1:0.4371501605133764 2:0.1129645110089039 3:0.007319590423684871 4:0.0040157281569846975 5:2.0430171507617034E-5 6:9.431552439795322E-4 7:7.5239332791500885E-6 
1.0 1:0.44597924865292016 2:0.04782519439611684 3:0.0038671825336416567 4:4.4452707673698444E-5 5:-4.653877416172705E-11 6:8.964476490588433E-6 7:-1.8430761558185863E-8 
1.0 1:0.5385485289710847 2:0.0771860436853042 3:0.01781820420483527 4:9.458845899304689E-4 5:1.8995512076003373E-6 6:8.96914262578418E-5 7:-3.386872896236154E-6 
1.0 1:0.4172355308938834 2:0.09913459309096377 3:0.008447096263028484 4:0.0011980356532488453 5:6.091546709038275E-7 6:-1.4159233184509742E-4 7:3.7621733522913514E-6 
1.0 1:0.4143900107550349 2:0.022026650336698102 3:0.0020692298292322134 4:6.819049525987554E-4 5:-3.9207162608717955E-7 6:8.383101539094484E-5 7:7.087984833233641E-7 
1.0 1:0.5467159572169179 2:0.08197083941980977 3:0.04286355681346654 4:0.008838897380896297 5:1.682633524693962E-4 6:0.0015849399928896258 7:3.587220586645801E-5 
1.0 1:0.5387978206833122 2:0.1196328736910862 3:0.018565857380783302 4:0.0038072316585713688 5:3.0328050546250106E-5 6:4.8198749045172385E-4 7:1.0236326454010993E-5 
1.0 1:0.720085572840956 2:0.22549993607258711 3:0.056048675788903046 4:0.004576121161340501 5:-7.27780306067957E-5 6:-0.0021717306346052323 7:-8.6250940324124E-6 
1.0 1:0.38811340391787896 2:0.06964896652253139 3:0.008983318550432181 4:7.406156585760185E-4 5:-1.6485416278995993E-6 6:-1.9222476906565194E-4 7:9.652254151470645E-7 
1.0 1:0.7582163057922632 2:0.2189059581683352 3:0.0339412025875416 4:0.007877493607208913 5:9.77672480132944E-5 6:0.0017576149443222565 7:8.386468263318694E-5 
1.0 1:0.7195286089539151 2:0.26217715914148826 3:0.04466754285751447 4:0.034045963489114706 5:0.0013215470990345208 6:0.015743657199938935 7:-1.2749928318909505E-4 
1.0 1:0.5026663805384448 2:0.13137425279972556 3:0.005681147532343246 4:0.0060148845246153024 5:3.428059846109095E-5 6:0.001993379547661458 7:-7.818165903498815E-6 
1.0 1:0.37138685761826107 2:0.05308838135425431 3:0.005940380771151784 4:0.001077230522675842 5:2.138072753365695E-6 6:9.850283733164118E-5 7:-1.6894950066141725E-6 
1.0 1:0.5210440253401218 2:0.13758309538282337 3:0.004299112937294909 4:0.006001970630195619 5:2.9622840672128324E-5 6:0.0019787179797416373 7:-7.211863655476066E-6 
1.0 1:0.412925938011517 2:0.042918134645722965 3:0.0042869447690076865 4:0.0015326203190118258 5:3.521459963564921E-6 6:1.0853483512456588E-4 7:-1.7413686640879142E-6 
1.0 1:0.34544182216146735 2:0.025016924287895793 3:0.001708710350325015 4:2.713475150045278E-4 5:1.1138373624278133E-7 6:-4.118914077283595E-6 7:-1.474187438124339E-7 
1.0 1:0.3111944657012595 2:0.025581456771490152 3:0.0021490342497120524 4:3.0030936167517826E-4 5:2.2063952291723965E-7 6:3.0261708493371366E-5 7:-9.757978593744843E-8 
1.0 1:0.31079050014766774 2:0.010867612662883852 3:4.4037195017972966E-4 4:3.508381200078778E-5 5:3.9006643161620654E-9 6:8.850092269627246E-7 7:-1.9498022692439904E-9 
1.0 1:0.33998190937522776 2:0.045264698901223914 3:0.004363441485402153 4:4.175791048189417E-4 5:1.46858091358292E-7 6:2.7860371659493208E-6 7:5.441997283020012E-7 
1.0 1:0.3136385260243506 2:0.04000003425990385 3:0.002840857937823709 4:0.0014165542161060688 5:2.837188350304941E-6 6:2.8211258132143044E-4 7:-1.5963950481533715E-7 
1.0 1:0.35505550179684525 2:0.03753986451695815 3:7.466072375185288E-4 4:5.8307688725576816E-5 5:-7.217666494315023E-9 6:2.695661258198943E-6 7:-9.793263147746357E-9 
1.0 1:0.2790027507498921 2:0.019922798599422413 3:2.9869646320976074E-4 4:2.854458747482494E-4 5:7.056324313183285E-8 6:3.697222453643087E-5 7:4.4360953689622195E-8 
1.0 1:0.42100884414992246 2:0.0731221319392919 3:0.0033783113202538436 4:3.825630882871205E-4 5:4.34666155175905E-7 6:1.0296027023770197E-4 7:-1.4711550900986711E-8 
1.0 1:0.3678345473545333 2:0.035137865271004626 3:0.003288861515631365 4:5.338094682908652E-4 5:3.6196220363150255E-7 6:7.4668935438863E-5 7:6.076621592632101E-7 
1.0 1:0.6090626939984165 2:0.07633521734449558 3:0.03411955127406727 4:0.0020373183832864596 5:-1.9056384405019277E-6 6:-1.7369095778801925E-4 7:-1.687872226941763E-5 
1.0 1:0.5442075744966351 2:0.06979672466911126 3:0.01675341471467749 4:0.0014676537273466189 5:-5.856526004626684E-6 6:-3.4814413192593176E-4 7:4.320219248045952E-6 
1.0 1:0.43285698532114847 2:0.08158826592869885 3:0.0047730984304464865 4:0.0020643774162133824 5:6.442369026826021E-6 6:4.670662312450633E-4 7:6.985631390152066E-7 
1.0 1:0.5465950668112328 2:0.09411387930036769 3:0.01996531556116215 4:6.439090315523832E-4 5:8.823267743970907E-7 6:-4.625366684833559E-5 7:-2.133489125461118E-6 
1.0 1:0.4573136515026089 2:0.06871717104030198 3:0.011815201396621507 4:2.825941822409821E-4 5:1.358238140778973E-7 6:-3.4621337701225544E-5 7:4.981919862570933E-7 
1.0 1:0.5165576235416773 2:0.09317199648380896 3:0.014362242999071162 4:0.011270011839000019 5:1.4112182596127279E-4 6:0.003361925208919812 7:-2.5363710992279497E-5 
1.0 1:0.3122942125360732 2:0.031072731249344804 3:0.0014750639924056494 4:1.3813786697347655E-4 5:6.197169691768654E-8 6:1.559743744109837E-5 7:6.907480112776843E-9 
1.0 1:0.3496329064296283 2:0.052933504397306985 3:0.005817934584383702 4:4.886214577701466E-4 5:-5.450628243558083E-7 6:-6.934833709201389E-5 7:6.177539489961632E-7 
1.0 1:0.657266910215767 2:0.17802165843546 3:0.03616603476767427 4:0.002390996599441219 5:1.8250519735791246E-5 6:-3.9674186865977675E-5 7:1.2699299534897297E-5 
1.0 1:0.6922619320457191 2:0.1957514739651149 3:0.04708660825651772 4:0.013122399483820511 5:3.251099145470587E-4 6:0.002185312561701692 7:2.6503810940518364E-5 
1.0 1:0.4749735396431609 2:0.08515431498449329 3:0.02673290639091589 4:0.015074514231131252 5:3.018852412308004E-4 6:0.004056909989172648 7:2.097947755753112E-5 
0.766945267729425 1:0.8664208571404279 2:0.2624504793077453 3:0.04555198133422346 4:0.002140109423098894 5:4.246332782672972E-6 6:-4.185288841356596E-4 7:2.069932918157823E-5 
1.0 1:0.5231837110403912 2:0.09865539564944592 3:0.005470533354702071 4:0.0011411589894874377 5:2.847868451312541E-6 6:1.2171385402904023E-4 7:1.3865719406089774E-7 
1.0 1:0.6367863662379275 2:0.1762108223964067 3:0.012901917784949075 4:0.0019950492613265993 5:-7.972074990841567E-6 6:-5.194435895544153E-4 7:-6.23672751657215E-6 
1.0 1:0.7651642070810596 2:0.2602978714469987 3:0.025928402961806117 4:0.004499847255209091 5:7.599587106835976E-6 6:7.090028590117214E-5 7:-4.800761822706908E-5 
1.0 1:0.7441009334926734 2:0.15456989180076894 3:0.03364887830956854 4:3.757498486806839E-4 5:4.733738697873671E-7 6:2.2053161769096085E-5 7:1.2494141078386093E-6 
1.0 1:0.48153041779133465 2:0.10636954828393817 3:0.009879154115442573 4:0.004089118038236934 5:2.5428060840135685E-5 6:0.0012496632940549228 7:5.37473938177159E-6 
1.0 1:0.45794848086335405 2:0.07662098183717767 3:0.0019332753827257833 4:3.703937461610701E-4 5:-2.2170503579851607E-7 6:8.361444413594166E-5 7:-2.2155369740472053E-7 
1.0 1:0.306504550191044 2:0.029144451100782537 3:6.26350872656365E-4 4:3.6614990391474884E-4 5:1.749751233953114E-7 6:6.21761488312702E-5 7:1.1406991865115775E-8 
1.0 1:0.5849498237257779 2:0.13070340525169885 3:0.00514111025412101 4:1.780626232286437E-4 5:-1.2656707225519458E-7 6:-5.723983176153498E-6 7:-1.1404374641121291E-7 
1.0 1:0.40437272713725714 2:0.05435125751712214 3:0.007380802664346264 4:0.0027052098599854883 5:1.1595026997116846E-5 6:5.288259361561485E-4 7:3.4167641876928177E-6 
1.0 1:0.36431641847843615 2:0.08398817723344792 3:0.0019170223091267658 4:6.946562812128429E-4 5:8.012646392997296E-7 6:1.8541454215027689E-4 7:2.3865718075897745E-8 
1.0 1:0.5881349822532982 2:0.09539069797807345 3:0.04889564227125822 4:0.023336779472257402 5:6.685393670623839E-4 6:0.005939579187664849 7:-4.1771536450221805E-4 
1.0 1:0.44105146031362646 2:0.10811246257849912 3:0.0032098807882464447 4:7.027105967144013E-4 5:9.993541914164523E-7 6:2.1989120995567302E-4 7:3.3929326348224703E-7 
1.0 1:0.43802623566139043 2:0.08916160371696663 3:0.0011999570291409006 4:4.4817416963528956E-4 5:2.982478188769181E-7 6:1.14243364018235E-4 7:1.3808958385443288E-7 
1.0 1:0.2862038581549752 2:0.030264850641002254 3:2.352260818206201E-4 4:3.640844153759535E-5 5:-3.3338305067886184E-9 6:-6.093831121002382E-6 7:-4.879346460635056E-10 
1.0 1:0.3749259494672303 2:0.03608698947249428 3:0.001295899426933718 4:9.950315656569244E-5 5:-6.157133319361052E-9 6:7.691933531808472E-7 7:3.5196152812230145E-8 
1.0 1:0.515872807966721 2:0.11558597187124199 3:0.009387591473048441 4:6.510600591035386E-4 5:1.1339783494104486E-6 6:1.7008299685224002E-4 7:1.14227597147735E-6 
1.0 1:0.41622531195311707 2:0.07679593306870722 3:0.0013345451204171174 4:1.424431293906394E-4 5:3.901355376474844E-8 6:3.235391281531972E-5 7:4.832199220309619E-8 
1.0 1:0.531613648377879 2:0.11771875562097031 3:0.006760526823302915 4:0.0029662962006540665 5:8.387950239985071E-6 6:6.154122580676946E-4 7:1.0300159010818926E-5 
1.0 1:0.5228024542541488 2:0.11602777463793179 3:0.0031132852616216626 4:0.0014895742276061414 5:1.8017347515563698E-6 6:4.67656885035805E-4 7:-2.6539620774793854E-6 
1.0 1:0.7319294202226575 2:0.2218817841610331 3:0.006468684016555626 4:8.254430695322471E-5 5:3.654466371495962E-9 6:1.4400094172454476E-5 7:6.020604071093264E-8 
1.0 1:0.41658153489085215 2:0.063957210961626 3:0.0016272561985724934 4:4.6198556629943827E-4 5:3.938329929208993E-7 6:1.1563389281677698E-4 7:-7.311705515738679E-8 
1.0 1:0.7189437220335199 2:0.19569002540404984 3:0.01022640990343752 4:0.003148261605962139 5:-7.53484367018568E-6 6:-1.101043947827399E-4 7:1.619668545951462E-5 
1.0 1:0.4144872774368911 2:0.046485074574239935 3:0.0060865780099274795 4:2.871716385559423E-4 5:-1.618394077563427E-7 6:-2.2820685663814336E-5 7:3.434420254460373E-7 
1.0 1:0.37947490421048996 2:0.06295364455300798 3:0.0027651249035323612 4:5.934245986801096E-4 5:7.583830970896652E-7 6:1.486116597879802E-4 7:5.196263558281555E-8 
1.0 1:0.5456473974103739 2:0.11581147216230761 3:0.0010262393822670487 4:0.002807004977164083 5:1.660348916523935E-6 6:7.791676741332658E-4 7:4.465506906852282E-6 
1.0 1:0.4759227359370497 2:0.1042525733762084 3:4.349434580700433E-4 4:4.132343060855656E-4 5:-1.1615564078783641E-7 6:1.151592552677265E-4 7:1.311473801163928E-7 
1.0 1:0.5566613441973971 2:0.11328288691860573 3:0.0022876378055732187 4:0.004113212529594916 5:-1.1406168542783424E-5 6:0.001377641051322227 7:-5.393958915607476E-6 
-1.0 1:0.9026229339887308 2:0.07153168874058762 3:0.06274597255847536 4:0.02248102258410822 5:-2.947122148615918E-4 6:-0.001876510603729661 7:-7.912355007697266E-4 
-1.0 1:0.4601259493086174 2:0.042518162400712975 3:0.030601278913931936 4:0.0042003152502979296 5:4.756132746684092E-5 6:8.515324331620079E-4 7:2.370283237193037E-6 
-1.0 1:0.4734987642212394 2:0.020646183196101103 3:0.011729925731721942 4:1.3815839258998357E-4 5:3.4125537040421404E-8 6:1.2646263786224472E-5 7:1.7253639159697852E-7 
-1.0 1:0.45840227095859376 2:0.011002637337382722 3:0.0153955189580516 4:8.210201228411347E-4 5:2.3320971271839183E-6 6:-2.2642535352422207E-6 7:-1.755459964715029E-6 
-1.0 1:0.4194446478898526 2:0.011994334005119017 3:0.005845385526655524 4:1.0196587103085766E-4 5:7.747809213413617E-8 6:-1.2688369039807322E-7 7:-1.3931636896726125E-8 
-1.0 1:1.1578400874609083 2:0.17522153430408688 3:0.1456076035465038 4:0.028840753766166516 5:0.0016956244036533982 6:0.012021652076780322 7:7.860664206458142E-4 
-1.0 1:0.5362070569919961 2:0.02833595747118285 3:0.02789897151642362 4:9.728222066024048E-4 5:-6.127472372728638E-7 6:-9.620331336526974E-5 7:-5.030912053521131E-6 
-1.0 1:0.3700615519569544 2:0.009681773603995827 3:0.0014547570947779905 4:5.279760928059656E-4 5:-4.6204546331316295E-7 6:-4.998749371782202E-5 7:2.4943306465003074E-8 
-1.0 1:0.4029547724335054 2:0.04217925110593794 3:0.017747833361772773 4:0.0025319390112737653 5:1.6905295840765946E-5 6:5.108285709679814E-4 7:1.5118320128545607E-6 
-1.0 1:0.566188666653921 2:0.10627084231160276 3:0.054771767976420936 4:0.012138097113071103 5:3.0867237945478033E-4 6:0.0037937822337016577 7:5.1694260232628276E-5 
-1.0 1:0.3978417559155101 2:0.003057884823511511 3:0.0024229223313334343 4:7.503389998120546E-4 5:8.162439057670232E-7 6:1.477419728615616E-6 7:5.977482192875055E-7 
-1.0 1:0.5214292627644566 2:0.003762083697225309 3:0.01697855092785353 4:0.0053885106993968954 5:1.9659990895087187E-5 6:-8.812910647731633E-5 7:-4.76441676749039E-5 
-1.0 1:0.46493744065793885 2:0.06253425621843277 3:0.008650942255006618 4:0.008467325563904279 5:7.149600420565927E-5 6:0.0017514477205610665 7:-1.1834227640059593E-5 
-1.0 1:0.6109981899490837 2:0.043768018348559305 3:0.02887706567763151 4:0.007354609527211492 5:1.0475145081451643E-4 6:0.0011977219208749135 7:-2.2689264859982463E-5 
-1.0 1:0.6907764811851598 2:0.0378715771027745 3:0.03598332605085637 4:0.007665517003699849 5:-7.024758754622023E-5 6:-7.86098211457181E-4 7:1.0617502412807407E-4 
-1.0 1:0.5882538857933466 2:0.07137102234423683 3:0.002347969587945269 4:5.090914197315809E-6 5:-2.8384648868026847E-10 6:1.2359220956617535E-6 7:4.787797195052403E-10 
-1.0 1:0.453593713374998 2:0.024955227956650238 3:5.380730981515265E-4 4:1.9919023568150965E-4 5:1.2187935828590789E-8 6:-4.842340358594768E-6 7:-6.40621957700619E-8 
-1.0 1:0.3991409731223178 2:0.002894263548184634 3:0.006075365871573833 4:5.26857603253526E-4 5:-9.406926217509097E-7 6:-1.245978132671162E-5 7:5.988883561272738E-8 
-1.0 1:0.3760583355998165 2:0.009955037855046811 3:0.0015552684285668396 4:4.9044052895586735E-5 5:-3.748025570905467E-9 6:6.283126608783721E-7 7:-1.3016221816974388E-8 
-1.0 1:0.5375173417799509 2:0.03602248417549267 3:0.003354034195673706 4:0.00295116123229106 5:-6.008653292600297E-6 6:3.272651504932501E-4 7:7.078406113023102E-6 
-1.0 1:0.986663080980344 2:0.0804130328679796 3:0.4674187186750191 4:0.021367172126151884 5:7.785510112334466E-5 6:0.00512743592783616 7:-0.0021339526301402782 
-1.0 1:0.30095017548706915 2:0.015256262418525422 3:0.01181521122738333 4:2.997582655955747E-4 5:-1.41877124141436E-7 6:-2.6269425293378906E-5 7:-5.45995464614637E-7 
-1.0 1:0.6037233502138779 2:0.04188099020964464 3:0.0025345291903719146 4:0.008671193192291466 5:-2.5198623687816018E-5 6:0.0017662824228234348 7:-3.189828377696329E-5 
-1.0 1:0.7929714147847738 2:0.008919589917676213 3:0.21634689956878647 4:0.015261534618901944 5:-2.449445826423085E-4 6:6.204281527085061E-4 7:-8.420425847933369E-4 
-1.0 1:0.5146731655528202 2:0.006226356431122757 3:0.01215061190475022 4:5.446218871086269E-4 5:-1.0890433654201247E-6 6:1.706999000133352E-5 7:8.813727176099705E-7 
-1.0 1:0.44235862321671526 2:0.0021614315310943214 3:3.758929598966825E-4 4:0.0012119545390692947 5:7.223938489654812E-7 6:-4.52340641301373E-6 7:3.837924726938124E-7 
-1.0 1:0.6827848405455611 2:0.1288090718958558 3:0.025014679240522045 4:0.001987299340137573 5:-1.4010954193714386E-5 6:-7.094781062650058E-4 7:-1.4939975993724987E-7 
-1.0 1:0.5073993632525946 2:0.051308460368034395 3:0.008147689226094467 4:7.923352026679158E-4 5:-1.7803272140011149E-6 6:-1.899389221060955E-5 7:-9.398363104948998E-7 
-1.0 1:0.5322298745098044 2:0.0025555986494012442 3:0.0030200600497727113 4:0.008504519464013906 5:4.297944339512611E-5 6:4.2815884793953417E-4 7:3.2282857633427106E-6 
-1.0 1:0.45596588705877833 2:0.0027143465089778528 3:0.0025540346887611212 4:9.506128407230926E-4 5:1.4105674810450422E-6 6:-4.9363283589619495E-5 7:-4.520015825899524E-7 
-1.0 1:0.5049448881635901 2:0.009628302864122248 3:8.610144475736804E-5 4:0.0026226264222060655 5:1.0104590732486097E-6 6:2.5441083930474815E-4 7:7.294827729202942E-7 
-1.0 1:0.4732373908636701 2:0.015358487634760307 3:0.0014347507176478034 4:0.00198019282765513 5:2.48320270481244E-6 6:-2.3376447610052488E-4 7:-2.2302591745026975E-6 
-1.0 1:0.5163523128078406 2:0.002891702195734274 3:6.842879106734432E-4 4:5.629283328679782E-4 5:2.88422090378647E-7 6:-1.0633751578608012E-5 7:-1.9717929699103417E-7 
-1.0 1:0.45645776868916466 2:0.0685827209828248 3:0.0023896729250971866 4:6.540784115598736E-4 5:5.602715180985608E-7 6:1.6928442350537748E-4 7:5.956429870630109E-7 
-1.0 1:0.6352879373540379 2:0.02319316381427723 3:0.014433513483763417 4:0.010749568349650913 5:-4.779830221004794E-5 6:-0.0012000745336417952 7:1.250754618038988E-4 
-1.0 1:0.27858906196820454 2:0.018851267168959216 3:0.0015449889649645783 4:1.603821193174227E-4 5:-2.3159655229941254E-8 6:-8.844231823820283E-6 7:7.640257826992746E-8 
-1.0 1:0.33609144080236464 2:0.010513220379349764 3:6.610414668047715E-4 4:4.91565256705452E-5 5:8.253380925395266E-9 6:7.22932703989249E-7 7:3.2249415879460916E-9 
-1.0 1:0.5754567191909703 2:0.028255752347854365 3:0.059252803244361246 4:0.0019240063644343042 5:9.342193988425773E-6 6:-1.7340645019297808E-4 7:1.8295871758946023E-5 
-1.0 1:0.3031313488326518 2:0.015330844999291316 3:1.2391445318992385E-4 4:2.136712368481578E-4 5:-2.492917831535932E-8 6:-6.105730439385164E-6 7:2.4235345026919236E-8 
-1.0 1:0.5481771254877763 2:0.013027859318540455 3:0.01771562613906633 4:3.0728349793276803E-4 5:-3.398428972011533E-7 6:2.8323575242034057E-5 7:6.312843608260361E-7 
-1.0 1:0.5740050430672816 2:0.01057917120728102 3:0.0245293305061024 4:0.003921807112912545 5:-3.846557175264135E-5 6:1.746634598814723E-5 7:6.385446066556875E-10 
-1.0 1:0.7791945350617231 2:0.17706029217497007 3:0.009493691043372122 4:0.017035245641124408 5:1.7852802973116985E-6 6:4.775482488962048E-5 7:2.1663339237794677E-4 
-1.0 1:0.4685226860093986 2:0.053190372869031215 3:0.004780748462145806 4:0.0015908708030906362 5:4.098408453630059E-6 6:2.3192480549485205E-4 7:-1.565794931609058E-6 
-1.0 1:0.6342459427828274 2:0.06958540872388061 3:0.020377319595731747 4:0.03751357059119719 5:6.965470576507505E-4 6:0.008394233958102345 7:7.684884204041623E-4 
-1.0 1:0.44602772851782524 2:0.04934490296996052 3:0.008851946198317962 4:0.007452232765000099 5:5.6572809303779496E-5 6:0.0016490197580791477 7:2.1518189108235323E-5 
-1.0 1:0.4856723581657366 2:0.014380772731267765 3:0.0012006764099882635 4:6.67950174567389E-4 5:4.6153894178529257E-7 6:-3.572076095284252E-5 7:-3.8052136243090163E-7 
-1.0 1:0.4798860765782309 2:0.016023474878978445 3:0.001649941731780776 4:0.0037331550177326263 5:-2.2696308442625636E-6 6:1.830392002186176E-4 7:8.982769821378796E-6 
-1.0 1:0.3867364912792838 2:0.00888512944351893 3:1.8568100343850833E-4 4:2.3781561155248817E-4 5:3.398596454229884E-8 6:5.453015241817018E-6 7:3.663818769724381E-8 
-1.0 1:0.4314446129261842 2:0.007166431351740596 3:3.8104832883640606E-4 4:2.2979500357211288E-4 5:4.480854489446403E-8 6:-9.251070509375384E-6 7:-5.1147079557754464E-8 
-1.0 1:0.34084887906223016 2:0.0410966154406715 3:6.91138958239344E-4 4:9.893175431038292E-4 5:7.204356505903733E-7 6:1.0797916148486215E-4 7:-3.8755388066361854E-7 
-1.0 1:0.5197458844026702 2:0.08564088259515122 3:0.016140429759717936 4:0.0013094708983040157 5:-5.354293395714012E-6 6:-3.2307600433296904E-4 7:-2.7518627784850464E-6 
-1.0 1:0.49907807184953124 2:0.014406436209487072 3:0.0011519394947826676 4:0.0013724363181634022 5:-1.3812299298824328E-6 6:1.6275742655603542E-4 7:1.0344455446504021E-6 
-1.0 1:0.7066236709774201 2:0.04994341207499013 3:0.14903529211909572 4:0.019282976440644355 5:-0.0010007603064949712 6:-0.003914113605801085 7:-2.5897755388591833E-4 
-1.0 1:0.5307022502785523 2:0.04892868145476759 3:0.011516646909092695 4:1.0844661225263008E-4 5:1.1538120214694433E-7 6:2.3089539249815427E-5 7:3.708857371439853E-8 
-1.0 1:0.40748560913070664 2:0.024000521551422474 3:3.5192027730884725E-4 4:0.0012841932363816004 5:7.213511553186345E-7 6:1.8945600102602693E-4 7:4.7429937598174953E-7 
-1.0 1:0.4127310985896382 2:0.03563519803007788 3:0.005541707056400882 4:3.509775475652862E-5 5:1.2366304388745694E-8 6:5.395399457455128E-6 7:-9.309759537272396E-9 
-1.0 1:0.4896027843391353 2:0.013587768153659436 3:0.03231769454891928 4:0.0027130227108259465 5:8.875720589893355E-6 6:-1.883252561248304E-4 7:-2.3802931060410268E-5 
-1.0 1:0.6488899769400795 2:0.017908799018937892 3:0.053099211405766504 4:8.527878055018903E-4 5:-3.943890287589588E-6 6:-1.1245247181083439E-4 7:4.168595891394839E-6 
-1.0 1:0.6858891321192484 2:0.02483930299997326 3:0.04518000425055311 4:6.215099390210835E-4 5:1.4819665714665482E-6 6:8.446312695498837E-5 7:-2.94113874068687E-6 
-1.0 1:0.4044327729554539 2:0.02731095696532909 3:0.011573568301034938 4:0.006442050314386923 5:4.783803298750359E-5 6:6.509216450368846E-4 7:-2.8384153147582294E-5 
-1.0 1:0.46342274750931334 2:0.007369394314416678 3:0.024883728958042455 4:0.001298257086566722 5:2.4385350384302752E-6 6:-6.742907913547838E-5 7:6.964445937614058E-6 
-1.0 1:0.4884920140886607 2:0.006388110464310309 3:0.03485011413208065 4:0.0032226639320468552 5:9.912739239702744E-6 6:-1.3305938776487857E-4 7:3.2682446339503256E-5 
-1.0 1:0.5610297986313681 2:0.05464011505685009 3:0.04340210755902533 4:0.005299698750883312 5:4.7520313372407165E-5 6:4.8047258451967004E-5 7:-6.482510030349936E-5 
-1.0 1:0.46159499824458733 2:0.015320289822183357 3:0.023004375634551388 4:4.5988621468614154E-4 5:-3.831779966359262E-7 6:-3.970028260883233E-5 7:1.4459140062574205E-6 
-1.0 1:0.2897545964360524 2:0.022367846439758622 3:1.6648589840106469E-4 4:4.393040941259924E-4 5:1.1507407476015603E-7 6:6.350403022653351E-5 7:-2.9541628817997327E-8 
-1.0 1:0.42094146148950184 2:0.011447827576522693 3:0.0026757712582038424 4:0.0016204518420089382 5:3.3714179878459222E-6 6:1.7286108044824904E-4 7:-1.3848730878528948E-7 
-1.0 1:0.3564977439450551 2:0.02992217834788283 3:0.0022491733405596084 4:4.1425250494481636E-4 5:2.1545348630752948E-7 6:7.114320520050063E-5 7:-3.368511700694437E-7 
-1.0 1:0.4573122388517729 2:0.0024219778550721143 3:0.01507159378909513 4:0.0019154772960937871 5:-1.0291861754091389E-5 6:2.2139655945793144E-5 7:-2.378126043417245E-8 
-1.0 1:0.7087424557507604 2:0.10668296050854216 3:0.03824109366600864 4:0.0031088479905962076 5:2.8051586039548106E-5 6:0.0010148224396455217 7:1.902975665399253E-5 
-1.0 1:0.7987004389420786 2:0.09630208293371477 3:0.014108956758420745 4:0.01578841693259049 5:7.199876083121031E-5 6:0.0037236820693720423 7:2.24374694081324E-4 
-1.0 1:0.3153026435234935 2:0.01371788244670218 3:0.006382847262116888 4:4.8767650746653823E-4 5:3.480272744236709E-7 6:-3.642721847642657E-5 7:-7.868804103081148E-7 
-1.0 1:0.37139217943307445 2:0.010725021557110075 3:0.007050358717373146 4:3.2329897652513665E-4 5:1.5258400344011366E-7 6:1.7971227154617017E-5 7:4.636413980387283E-7 
-1.0 1:0.867919653675382 2:0.06587621536021339 3:0.08871149627748645 4:0.021378419141058057 5:-1.0047413049923715E-4 6:-0.002152346303032091 7:-9.255703801038847E-4 
-1.0 1:0.5566665847279926 2:0.006146812260866686 3:0.04278333771535345 4:0.003300069522412677 5:3.3141465257849066E-5 6:1.5476733123698423E-4 7:-2.095817892286346E-5 
-1.0 1:0.9098870042192021 2:0.11921358571361608 3:0.005183560628874655 4:0.009988168056148106 5:6.373717861943224E-5 6:0.003338103430092238 7:3.32077547056383E-5 
-1.0 1:0.6230308943550571 2:0.0030961616539667046 3:0.00880278799272821 4:0.008255836636231445 5:1.0390334215776567E-5 6:4.1439962233760796E-4 7:6.960921104683758E-5 
-1.0 1:0.49871731368100325 2:0.05311730177047453 3:0.014988677025223595 4:0.004031706428405058 5:2.268342662345593E-5 6:8.517002353710299E-4 7:2.1627070464579448E-5 
-1.0 1:0.47099438171384883 2:0.032977693132636154 3:0.021068200113755542 4:0.0038508609070019473 5:2.0445874984013878E-5 6:6.540480167781626E-4 7:-2.8018993427809967E-5 
-1.0 1:1.2633884031010305 2:0.7502699912960223 3:0.37216805846266965 4:0.028521292977478133 5:-0.0026071548030842974 6:-0.02342763196332104 7:-0.001355519589008135 
-1.0 1:0.4235217388045446 2:0.0018383759357205047 3:0.0018974819251588904 4:1.1479142197059984E-5 5:1.0843045661783602E-9 6:-3.8018861537920376E-7 7:-1.3017075699551918E-9 
-1.0 1:0.4531711689307577 2:0.019014822250596485 3:0.02194584569162438 4:3.5122960391403667E-4 5:-1.1521833913638644E-7 6:-2.471736750854141E-5 7:-9.682998632112478E-7 
-1.0 1:0.5102688995072926 2:0.053080142112140793 3:0.02199313000718603 4:4.638652800362679E-5 5:3.839784722305692E-8 6:9.334582432459815E-6 7:2.68467399844449E-8 
-1.0 1:0.49982569577114566 2:0.052740046240935055 3:0.020570735304449007 4:0.0015484236806509195 5:8.733841455343149E-6 6:3.400753155288599E-4 7:-2.989769587129604E-7 
-1.0 1:0.5830170633121243 2:0.050735618984472056 3:0.005612121013573404 4:0.00616688393274023 5:2.5679880963350456E-5 6:0.001152346281869161 7:2.5627157135016455E-5 
-1.0 1:0.5254495252796749 2:0.05908350255039996 3:0.003813765329458812 4:0.004770821379825098 5:1.7728521452441655E-5 6:5.481923538419451E-4 7:9.99131736416216E-6 
-1.0 1:0.8538307606094274 2:0.05282350436884692 3:0.04980669413860324 4:0.04926243425892666 5:6.668343455839577E-4 6:-0.006213837824891223 7:0.002347273983645791 
-1.0 1:0.3675661924235619 2:0.03817674282964925 3:0.0016565213983326533 4:3.224672336709708E-4 5:1.9097994976482798E-7 6:-2.503972593409427E-5 7:-1.3810427705798433E-7 
-1.0 1:0.38056368320748524 2:0.004933223931647352 3:0.004606956910382183 4:2.629281394273996E-4 5:-1.1385615272333507E-8 6:1.7378039492107144E-5 7:2.8915203964539353E-7 
-1.0 1:0.3106005184719003 2:0.01627640306187621 3:1.1447262870443116E-4 4:3.1026514727532292E-6 5:-4.9328332781223097E-11 6:-1.4213988679631466E-7 7:3.139630018601855E-11 
-1.0 1:0.515437682094879 2:0.01523064541123483 3:0.004526147049509514 4:0.0017899697836702938 5:-4.983624358011999E-6 6:-6.21919231898834E-5 7:-1.0588490737216358E-6 
-1.0 1:0.6610938916537794 2:0.045304435905139724 3:4.127996091650588E-4 4:0.003378323690022306 5:2.6565827741606056E-6 6:-2.913335240752095E-5 7:2.976390817994799E-6 
-1.0 1:0.5700960262015583 2:0.025568370310720515 3:0.026934115692367182 4:8.522534943810207E-4 5:2.0626717576258986E-6 6:-1.0883145228818708E-4 7:3.523947563160781E-6 
-1.0 1:0.47637849678507405 2:0.06880331888326865 3:0.0037125121407578215 4:3.387609002472255E-4 5:3.791604561493805E-7 6:6.580464149675186E-5 7:2.3756951218375523E-8 
-1.0 1:0.69872851926404 2:0.03495202541823089 3:0.10149909156429478 4:0.001561672662188477 5:-1.5628124841567968E-5 6:-1.6721875122782708E-4 7:1.1930435967939907E-5 
-1.0 1:0.8287160530067066 2:0.021435845639520935 3:0.015283849543196198 4:0.005714197155824609 5:-4.239316440863346E-5 6:-8.227416166937548E-4 7:3.247281976738865E-5 
-1.0 1:0.8078717691060209 2:0.10771186409938568 3:0.029131477304187563 4:0.015145613592578391 5:-2.624937777414661E-4 6:-0.0037301797737618846 7:-1.797413339822849E-4 
-1.0 1:0.41449859660190946 2:0.00723187330156538 3:0.001748361471313337 4:4.106457127913964E-4 5:2.879379979896738E-7 6:1.3046395328585717E-5 7:1.9534777066784085E-7 
-1.0 1:0.36499330085417797 2:0.03120414393609419 3:0.011078792689801734 4:0.0016103494543119798 5:6.798415908577304E-6 6:2.4687193858832876E-4 7:-2.1579828015953126E-7 
-1.0 1:0.42640527322319366 2:0.04568636729819983 3:0.011970930187496521 4:0.0019669323460475984 5:8.769400794589745E-6 6:4.191821874427114E-4 7:3.7673532525396082E-6 
-1.0 1:0.8044146295155881 2:0.1607405653953188 3:0.00904445831136625 4:0.01230667308438141 5:-5.9562266595564035E-5 6:0.0031737567941069475 7:1.1537017956732969E-4 
-1.0 1:0.5956253384958528 2:0.09638785613043878 3:9.749083970673189E-4 4:0.0011119764145420114 5:-1.0866201649498803E-8 6:1.7930361188718606E-4 7:1.157726943987622E-6 
-1.0 1:0.4108589199017788 2:0.05249255937505186 3:0.007056258088401887 4:0.0047659533976169505 5:2.6288030895608052E-5 6:0.0010912223712786614 7:8.533295427638104E-6 
-1.0 1:0.41057325838851655 2:0.05001224044385752 3:0.0018311905048091087 4:0.0010110244112888245 5:1.3232916696502344E-6 6:2.260148325864782E-4 7:3.7592975804106164E-7 
-1.0 1:0.38368708131222573 2:0.06929075269744399 3:4.904223092836774E-4 4:3.332567000064138E-4 5:1.3328843866838128E-7 6:7.654226290342018E-5 7:-1.9633050337498164E-8 
-1.0 1:0.5095873155333879 2:0.008112321589068872 3:0.020934209963376225 4:0.0021655329187390687 5:7.594238379590143E-6 6:4.0017871602418034E-5 7:-1.244674716911037E-5 
-1.0 1:0.44116605137483206 2:0.03804091942760244 3:0.0241887176405525 4:0.003219792441634066 5:2.043841552509927E-5 6:6.063687283857823E-4 7:1.9740454426962098E-5 
-1.0 1:0.49033135372500236 2:0.024856578464307357 3:0.033945373718270916 4:0.0017066817976721825 5:9.973234970880038E-6 6:2.6817414481978126E-4 7:8.323607416472817E-6 
-1.0 1:0.4185481890160808 2:0.0729978737832788 3:0.01770529763787794 4:0.002144890117100517 5:5.706219828796369E-6 6:6.242685225690489E-5 7:1.192263820349039E-5 
-1.0 1:0.5030098431770569 2:0.1009534105553154 3:0.03351768761570118 4:0.003514853414510063 5:1.6773268943748792E-5 6:1.5846082746838707E-4 7:3.426517365627036E-5 
-1.0 1:0.4693798497481257 2:0.054885725620521485 3:0.03511804015292708 4:0.0029753280868562316 5:2.8761953641016576E-5 6:6.961237364625728E-4 7:9.886120487877686E-6 
-1.0 1:0.4856840391767171 2:0.03198280610850539 3:0.04802947240748159 4:0.0027121893499119196 5:2.7370654751290995E-6 6:2.910286623804811E-4 7:3.083397829001153E-5 
-1.0 1:0.6669697701146984 2:0.10345649784552316 3:0.07038909508284974 4:0.006023808152602701 5:1.1452807765812356E-4 6:0.0019222594442731456 7:4.763478975867918E-5 
-1.0 1:0.8344467707954417 2:0.15730682799652454 3:0.22710442073627507 4:0.03212003782376146 5:0.0020815071405316694 6:0.012223815042747638 7:0.0017869377114132278 
-1.0 1:0.5968223278233511 2:0.016135758553292228 3:0.0011658647783132497 4:0.002060246409444085 5:1.6173927016149659E-6 6:1.6289208019524767E-4 7:-2.7530844455886915E-6 
-1.0 1:0.6540449263592072 2:0.03426788092990732 3:0.013170588928716408 4:1.850109170899586E-4 5:2.49593727478247E-7 6:-1.57740383746526E-5 7:-1.4528924693337307E-7 
-1.0 1:0.366843336776605 2:0.009039668941933858 3:0.01067335098982158 4:0.0017409873117381412 5:-4.582110782490297E-6 6:4.0754530982039075E-5 7:-5.9436939805728815E-6 
-1.0 1:0.40755554226732926 2:0.025911317818658075 3:0.014053847333233187 4:5.6404303193717376E-5 5:-1.0133970005769532E-8 6:-5.2995763530877815E-6 7:4.918563178070578E-8 
-1.0 1:0.48261872807636685 2:0.011862559822525601 3:0.01519115487564112 4:0.0010082397235639828 5:-9.740764032086528E-8 6:-6.659299473920532E-5 7:3.94465232905506E-6 
-1.0 1:0.37795999567686367 2:0.011855951856917107 3:1.1418913416082568E-4 4:4.5414558550791357E-4 5:8.817929341515568E-8 6:4.389586184194279E-5 7:5.403825812852294E-8 
-1.0 1:0.3860709004732205 2:0.06310209691553167 3:0.008342050526172325 4:0.0020341333943340876 5:8.13925768348003E-6 6:4.5445902235670735E-4 7:-1.991091582966669E-6 
-1.0 1:0.4016240376344146 2:0.01771652820267953 3:6.242534168360683E-4 4:3.208036309000786E-4 5:-2.828746081682183E-8 6:-4.10427732979164E-5 7:1.407474891353279E-7 
-1.0 1:0.33453348910230696 2:0.010898106139536436 3:2.8448615555412516E-4 4:1.407251065065999E-6 5:2.403446746290182E-11 6:1.2053957847173483E-7 7:-1.466856304598737E-11 
-1.0 1:0.7040501233774785 2:0.1300274464105196 3:0.010139552620154584 4:8.54144421300124E-5 5:-5.425872554738866E-8 6:-3.3687851475262513E-6 7:5.809020761058498E-8 
-1.0 1:0.7074355881641299 2:0.1321435012699174 3:0.01071025648986268 4:1.1083082799293934E-4 5:-8.621600885786243E-8 6:-6.2174872138300926E-6 7:8.454352885734617E-8 
-1.0 1:0.8304011701067869 2:0.12021201867761437 3:0.011600513903564522 4:7.590333188733829E-4 5:-1.2721555539219211E-6 6:-1.9642646664370255E-4 7:-1.8586448095385797E-6 
-1.0 1:0.4329461279984554 2:0.03500449950152528 3:0.0033890403479317458 4:0.0035215256219129298 5:-1.2108779116372018E-5 6:4.976478761423588E-4 7:-1.174756159208329E-6 
-1.0 1:0.37831264991511226 2:0.026066512087569594 3:0.0010663268761048545 4:7.539198264894568E-4 5:5.475727388271747E-7 6:5.0520511547342515E-5 7:3.9637244504041334E-7 
-1.0 1:0.5291730979103817 2:0.014516505793109851 3:0.02310106464009944 4:5.277339773293556E-4 5:6.150724374151464E-7 6:6.1025340139091364E-5 7:1.7369450672172472E-6 
-1.0 1:0.5214825561348508 2:0.014261579284226753 3:0.022739227143833363 4:4.577004165209801E-4 5:6.427369597831487E-7 6:5.3482986707389135E-5 7:1.3293630464601199E-6 
-1.0 1:0.6627804937443329 2:0.12198786013070506 3:0.024378464555868146 4:4.8755101566301344E-4 5:6.327308490232056E-7 6:8.743117853686201E-5 7:1.5572297600858085E-6 
-1.0 1:0.7351740262823074 2:0.024328739962810726 3:0.08091953529626592 4:0.0020738081162650635 5:-1.641541225977997E-5 6:-2.1191921213500845E-4 7:-2.126589293885653E-5 
-1.0 1:0.775439745054348 2:0.21130720826993554 3:0.049648688218917394 4:0.020825699644778414 5:6.285713844036543E-4 6:0.009527097992423583 7:-2.309552417780903E-4 
-1.0 1:0.42569003454509524 2:0.028714043891846067 3:0.010027527841176448 4:0.0020106749594169773 5:8.950332714262429E-6 6:2.836422221847627E-4 7:-1.1845491850051718E-6 
-1.0 1:0.37810278815428544 2:0.024078313965305274 3:0.003295323693326286 4:2.381907217415493E-4 5:1.3056706086979266E-7 6:-1.5360477984660294E-5 7:-1.6578384662716966E-7 
-1.0 1:0.5067825476822171 2:0.04997945168650298 3:5.339080141887857E-4 4:1.0397466362261972E-4 5:2.118318872448042E-8 6:-2.0830215413371943E-5 7:-1.230477928259541E-8 
-1.0 1:0.37458430983037694 2:0.01739372920676075 3:0.005052305437217236 4:2.6167949730672587E-4 5:3.9803176568127556E-8 6:1.4817082825373434E-5 7:-2.982398244641404E-7 
-1.0 1:0.4361712386920461 2:0.046717678542088366 3:0.013463357373473116 4:0.00167039461235443 5:7.701454944759636E-6 6:3.4287725503431317E-4 7:1.853952999525752E-6 
-1.0 1:0.4819410326454078 2:0.0425166912790183 3:0.023047019239460904 4:0.0027074868359660905 5:-1.1542505466936531E-6 6:4.998056075211058E-4 7:2.1356177353621887E-5 
-1.0 1:0.41451293653286003 2:0.012488289349478028 3:0.0014699593390129113 4:3.4483195289984755E-4 5:2.3443677381216787E-7 6:3.1734594366601744E-5 7:7.289098421160234E-8 
-1.0 1:0.4777666003034493 2:0.01706792670635709 3:7.843541892291513E-5 4:1.532772154582793E-6 5:-1.654081397143995E-11 6:-1.8890154257770245E-7 7:-2.975519355910673E-12 
-1.0 1:0.6063201199654396 2:0.020840587246555416 3:0.006732737997154866 4:6.486823476604897E-4 5:1.1625732971800274E-6 6:2.93682817345666E-5 7:-6.972659252647209E-7 
-1.0 1:0.8128662163625561 2:0.183874810431212 3:0.01358946842711149 4:0.0036832195519556476 5:-7.091919830147923E-6 6:-0.0015025329932324936 7:-2.5074467757614798E-5 
-1.0 1:0.49579939091321085 2:0.009742239345124842 3:0.0032811980844859446 4:2.8973344058291095E-4 5:8.871788992902237E-8 6:1.3796596771036238E-5 7:-2.682047886214912E-7 
-1.0 1:0.36057832115967414 2:0.024216380854192962 3:0.0015140529692509966 4:1.6073987786730987E-4 5:-5.094548055582524E-8 6:-1.5203084405574803E-5 7:-6.076635481502469E-8 
-1.0 1:0.3274268331225059 2:0.01198387594976983 3:0.0017785373366056 4:0.001398591707789209 5:-1.426547348775371E-6 6:1.530355492215571E-4 7:-1.6824257147394662E-6 
-1.0 1:0.3360220930584297 2:0.021800252484268104 3:0.0012855091101334768 4:2.4634850231827168E-5 5:-7.310996620097223E-10 6:1.4993453738760503E-6 7:4.322526395983832E-9 
